{"learner":{"attributes":{"scikit_learn":"{\"_estimator_type\": \"classifier\"}"},"feature_names":[],"feature_types":[],"gradient_booster":{"model":{"gbtree_model_param":{"num_parallel_tree":"1","num_trees":"200"},"iteration_indptr":[0,1,2,3,4,5,6,7,8,9,10,11,12,13,14,15,16,17,18,19,20,21,22,23,24,25,26,27,28,29,30,31,32,33,34,35,36,37,38,39,40,41,42,43,44,45,46,47,48,49,50,51,52,53,54,55,56,57,58,59,60,61,62,63,64,65,66,67,68,69,70,71,72,73,74,75,76,77,78,79,80,81,82,83,84,85,86,87,88,89,90,91,92,93,94,95,96,97,98,99,100,101,102,103,104,105,106,107,108,109,110,111,112,113,114,115,116,117,118,119,120,121,122,123,124,125,126,127,128,129,130,131,132,133,134,135,136,137,138,139,140,141,142,143,144,145,146,147,148,149,150,151,152,153,154,155,156,157,158,159,160,161,162,163,164,165,166,167,168,169,170,171,172,173,174,175,176,177,178,179,180,181,182,183,184,185,186,187,188,189,190,191,192,193,194,195,196,197,198,199,200],"tree_info":[0,0,0,0,0,0,0,0,0,0,0,0,0,0,0,0,0,0,0,0,0,0,0,0,0,0,0,0,0,0,0,0,0,0,0,0,0,0,0,0,0,0,0,0,0,0,0,0,0,0,0,0,0,0,0,0,0,0,0,0,0,0,0,0,0,0,0,0,0,0,0,0,0,0,0,0,0,0,0,0,0,0,0,0,0,0,0,0,0,0,0,0,0,0,0,0,0,0,0,0,0,0,0,0,0,0,0,0,0,0,0,0,0,0,0,0,0,0,0,0,0,0,0,0,0,0,0,0,0,0,0,0,0,0,0,0,0,0,0,0,0,0,0,0,0,0,0,0,0,0,0,0,0,0,0,0,0,0,0,0,0,0,0,0,0,0,0,0,0,0,0,0,0,0,0,0,0,0,0,0,0,0,0,0,0,0,0,0,0,0,0,0,0,0,0,0,0,0,0,0],"trees":[{"base_weights":[2.2360297E-2,8.4623784E-1,-1.1830426E0,1.5082848E0,-4.4433597E-1,5.727157E-2,-1.7215058E0,1.6166266E0,-5.479741E-1,-1.7986509E-1,6.239361E-1,1.1215115E0,-6.0482097E-1,-2.0068383E-1,-7.79062E-1,1.7093073E0,5.6220436E-1,3.621697E-2,-1.23879604E-1,1.3289039E0,-5.770235E-2,-2.5759641E-2,1.394817E0,1.0111073E0,-1.2013249E0,-1.6303055E-1,-2.2779861E-1,1.7576551E-1,-3.807171E-3,1.15434706E-1,-1.7997004E-2,-2.2231515E-2,1.6960041E-1,-1.4518994E-1,9.464603E-2,1.8709641E-2,1.6151744E-1,3.621697E-2,1.2331615E-1,-1.7701666E-1,-4.936104E-3,6.158323E-2,-1.1613417E-1],"categories":[],"categories_nodes":[],"categories_segments":[],"categories_sizes":[],"default_left":[0,0,0,0,0,0,0,0,0,0,0,0,0,0,0,0,0,0,0,0,0,0,0,0,0,0,0,0,0,0,0,0,0,0,0,0,0,0,0,0,0,0,0],"id":0,"left_children":[1,3,5,7,9,11,13,15,17,-1,19,21,23,-1,25,27,29,-1,-1,31,33,-1,35,37,39,-1,41,-1,-1,-1,-1,-1,-1,-1,-1,-1,-1,-1,-1,-1,-1,-1,-1],"loss_changes":[1.6370753E2,8.432009E1,4.4801125E1,1.5352127E1,5.0264656E1,1.5637256E1,1.0995712E1,5.0919647E0,2.9617476E0,0E0,9.558153E0,3.5602598E0,1.4456043E1,0E0,5.4889345E0,4.835434E0,3.0618932E0,0E0,0E0,5.924206E0,1.6760096E1,0E0,1.6255789E0,1.6533804E-1,6.7868547E0,0E0,7.600255E0,0E0,0E0,0E0,0E0,0E0,0E0,0E0,0E0,0E0,0E0,0E0,0E0,0E0,0E0,0E0,0E0],"parents":[2147483647,0,0,1,1,2,2,3,3,4,4,5,5,6,6,7,7,8,8,10,10,11,11,12,12,14,14,15,15,16,16,19,19,20,20,22,22,23,23,24,24,26,26],"right_children":[2,4,6,8,10,12,14,16,18,-1,20,22,24,-1,26,28,30,-1,-1,32,34,-1,36,38,40,-1,42,-1,-1,-1,-1,-1,-1,-1,-1,-1,-1,-1,-1,-1,-1,-1,-1],"split_conditions":[1.0898517E0,2.3862459E-1,-3.163206E-1,1.4717048E0,5.5931233E-2,-3.4905815E-1,1.0276179E0,1.2217035E0,-9.301139E-1,-1.7986509E-1,6.2402092E-2,-1.150673E0,-5.489841E-1,-2.0068383E-1,-3.9636204E-1,1.6214311E0,6.615041E-1,3.621697E-2,-1.23879604E-1,-9.617146E-1,8.34359E-1,-2.5759641E-2,-1.3186642E0,-9.6960604E-2,5.035203E-1,-1.6303055E-1,7.905523E-1,1.7576551E-1,-3.807171E-3,1.15434706E-1,-1.7997004E-2,-2.2231515E-2,1.6960041E-1,-1.4518994E-1,9.464603E-2,1.8709641E-2,1.6151744E-1,3.621697E-2,1.2331615E-1,-1.7701666E-1,-4.936104E-3,6.158323E-2,-1.1613417E-1],"split_indices":[12,11,9,9,2,4,2,4,0,0,0,0,3,0,7,3,1,0,0,7,0,0,4,4,0,0,9,0,0,0,0,0,0,0,0,0,0,0,0,0,0,0,0],"split_type":[0,0,0,0,0,0,0,0,0,0,0,0,0,0,0,0,0,0,0,0,0,0,0,0,0,0,0,0,0,0,0,0,0,0,0,0,0,0,0,0,0,0,0],"sum_hessian":[1.6283612E2,9.690248E1,6.593365E1,6.3935658E1,3.2966824E1,2.0229641E1,4.5704006E1,6.0938675E1,2.996984E0,1.4235674E1,1.873115E1,7.49246E0,1.2737182E1,3.421557E1,1.1488439E1,5.5444202E1,5.4944706E0,1.498492E0,1.498492E0,8.741203E0,9.989946E0,1.2487433E0,6.2437167E0,3.2467327E0,9.490449E0,3.74623E0,7.7422085E0,5.394571E1,1.498492E0,2.7472353E0,2.7472353E0,1.7482406E0,6.9929624E0,3.9959786E0,5.993968E0,1.2487433E0,4.994973E0,1.498492E0,1.7482406E0,5.993968E0,3.4964812E0,4.245727E0,3.4964812E0],"tree_param":{"num_deleted":"0","num_feature":"13","num_nodes":"43","size_leaf_vector":"1"}},{"base_weights":[-4.3398157E-2,-1.0451276E0,8.7106544E-1,-5.961965E-2,-1.7429338E-1,1.1072149E0,-1.0576544E0,8.9199454E-1,-1.3045202E0,1.3402992E0,2.005164E-1,-2.2951788E-1,-1.5916394E-1,-1.1828657E-1,1.100019E0,1.2266349E-2,-1.5713445E0,5.4245457E-2,1.4552796E0,-1.3153149E-1,5.2767414E-1,9.866178E-2,-8.9263654E-1,1.5697417E-1,6.968867E-3,-1.6998446E-1,-4.9712267E-2,9.432504E-2,-1.3332002E-1,1.6913974E-1,9.497655E-2,1.4012013E-1,-1.1905933E-2,-1.16737776E-1,-1.9045977E-2],"categories":[],"categories_nodes":[],"categories_segments":[],"categories_sizes":[],"default_left":[0,0,0,0,0,0,0,0,0,0,0,0,0,0,0,0,0,0,0,0,0,0,0,0,0,0,0,0,0,0,0,0,0,0,0],"id":1,"left_children":[1,3,5,7,-1,9,11,13,15,17,19,21,-1,-1,23,-1,25,27,29,-1,31,-1,33,-1,-1,-1,-1,-1,-1,-1,-1,-1,-1,-1,-1],"loss_changes":[1.4792592E2,5.287932E1,3.963269E1,4.022656E1,0E0,1.5734062E1,3.934268E0,9.623791E0,5.7874165E0,8.8022995E0,8.956478E0,4.8968596E0,0E0,0E0,8.623005E0,0E0,8.7353134E-1,8.618495E0,4.969513E0,0E0,8.311586E0,0E0,5.00679E-1,0E0,0E0,0E0,0E0,0E0,0E0,0E0,0E0,0E0,0E0,0E0,0E0],"parents":[2147483647,0,0,1,1,2,2,3,3,5,5,6,6,7,7,8,8,9,9,10,10,11,11,14,14,16,16,17,17,18,18,20,20,22,22],"right_children":[2,4,6,8,-1,10,12,14,16,18,20,22,-1,-1,24,-1,26,28,30,-1,32,-1,34,-1,-1,-1,-1,-1,-1,-1,-1,-1,-1,-1,-1],"split_conditions":[5.5931233E-2,2.3862459E-1,7.905523E-1,1.0898517E0,-1.7429338E-1,1.0898517E0,2.3862459E-1,-1.3531126E0,-8.2718503E-1,-9.617146E-1,-7.0078266E-1,1.4717048E0,-1.5916394E-1,-1.1828657E-1,1.4039283E0,1.2266349E-2,5.035203E-1,1.2092206E0,1.7268164E-1,-1.3153149E-1,-5.489841E-1,9.866178E-2,-8.1983435E-1,1.5697417E-1,6.968867E-3,-1.6998446E-1,-4.9712267E-2,9.432504E-2,-1.3332002E-1,1.6913974E-1,9.497655E-2,1.4012013E-1,-1.1905933E-2,-1.16737776E-1,-1.9045977E-2],"split_indices":[2,11,9,12,0,12,11,7,9,7,7,9,0,0,8,0,0,11,0,0,3,0,0,0,0,0,0,0,0,0,0,0,0,0,0],"split_type":[0,0,0,0,0,0,0,0,0,0,0,0,0,0,0,0,0,0,0,0,0,0,0,0,0,0,0,0,0,0,0,0,0,0,0],"sum_hessian":[1.594894E2,7.604483E1,8.3444565E1,3.197382E1,4.4071014E1,7.472169E1,8.722877E0,1.8282204E1,1.3691614E1,5.906076E1,1.5660931E1,3.9801066E0,4.74277E0,1.2389168E0,1.7043287E1,2.241675E0,1.144994E1,4.967796E0,5.4092964E1,2.243875E0,1.3417055E1,1.2322887E0,2.747818E0,1.1346803E1,5.696485E0,9.706443E0,1.7434968E0,3.2228863E0,1.7449095E0,3.5272045E1,1.8820919E1,5.211468E0,8.205587E0,1.4988496E0,1.2489684E0],"tree_param":{"num_deleted":"0","num_feature":"13","num_nodes":"35","size_leaf_vector":"1"}},{"base_weights":[-6.0766183E-2,-9.275477E-1,7.816771E-1,-2.4382574E-2,-1.6042314E0,1.1253464E0,-2.234324E-1,9.6167445E-1,-8.714141E-1,-6.0617197E-1,-1.6600554E-1,1.3013805E0,-1.7323405E-1,-7.075415E-1,7.447776E-1,-5.4986842E-2,1.1732857E0,4.6559468E-1,-1.5027332E0,-1.0983344E-1,1.3153096E-2,1.3737496E0,-7.313352E-2,-1.1702547E0,1.0639807E-1,-1.4403461E-1,-2.8506973E-1,-2.9765839E-2,1.1618367E0,-2.9772816E-2,1.3879706E-1,-3.800475E-2,8.791717E-2,2.4087468E-2,-1.7008437E-1,1.6011342E-1,8.603526E-2,-2.8356899E-2,-1.3892876E-1,1.740872E-2,-1.3936919E-1,2.3479057E-2,1.3700049E-1],"categories":[],"categories_nodes":[],"categories_segments":[],"categories_sizes":[],"default_left":[0,0,0,0,0,0,0,0,0,0,0,0,0,0,0,0,0,0,0,0,0,0,0,0,0,0,0,0,0,0,0,0,0,0,0,0,0,0,0,0,0,0,0],"id":2,"left_children":[1,3,5,7,9,11,13,15,17,19,-1,21,23,25,27,-1,29,31,33,-1,-1,35,-1,37,-1,-1,39,-1,41,-1,-1,-1,-1,-1,-1,-1,-1,-1,-1,-1,-1,-1,-1],"loss_changes":[1.168523E2,4.814509E1,2.8296795E1,2.989097E1,1.5040665E0,1.409404E1,1.0614639E1,5.938404E0,1.6936422E1,1.5828736E0,0E0,8.8813095E0,1.12675085E1,4.1900954E0,3.6765723E0,0E0,5.09836E0,2.7589335E0,5.004854E0,0E0,0E0,4.698784E0,0E0,5.723381E-1,0E0,0E0,5.6755285E0,0E0,7.7367544E-1,0E0,0E0,0E0,0E0,0E0,0E0,0E0,0E0,0E0,0E0,0E0,0E0,0E0,0E0],"parents":[2147483647,0,0,1,1,2,2,3,3,4,4,5,5,6,6,7,7,8,8,9,9,11,11,12,12,13,13,14,14,16,16,17,17,18,18,21,21,23,23,26,26,28,28],"right_children":[2,4,6,8,10,12,14,16,18,20,-1,22,24,26,28,-1,30,32,34,-1,-1,36,-1,38,-1,-1,40,-1,42,-1,-1,-1,-1,-1,-1,-1,-1,-1,-1,-1,-1,-1,-1],"split_conditions":[5.5931233E-2,2.3862459E-1,1.0898517E0,1.4039283E0,-1.2343783E0,1.2092206E0,9.9543333E-1,-1.4815117E0,-3.163206E-1,-1.748424E0,-1.6600554E-1,1.4717048E0,1.6899058E-1,-3.9636204E-1,8.912549E-1,-5.4986842E-2,-8.747373E-1,-2.2240739E-1,-1.1201459E0,-1.0983344E-1,1.3153096E-2,1.7268164E-1,-7.313352E-2,6.615041E-1,1.0639807E-1,-1.4403461E-1,1.1651977E0,-2.9765839E-2,-3.093847E-1,-2.9772816E-2,1.3879706E-1,-3.800475E-2,8.791717E-2,2.4087468E-2,-1.7008437E-1,1.6011342E-1,8.603526E-2,-2.8356899E-2,-1.3892876E-1,1.740872E-2,-1.3936919E-1,2.3479057E-2,1.3700049E-1],"split_indices":[2,11,12,8,3,11,10,0,9,3,0,9,7,7,6,0,7,7,3,0,0,0,0,1,0,0,0,0,7,0,0,0,0,0,0,0,0,0,0,0,0,0,0],"split_type":[0,0,0,0,0,0,0,0,0,0,0,0,0,0,0,0,0,0,0,0,0,0,0,0,0,0,0,0,0,0,0,0,0,0,0,0,0,0,0,0,0,0,0],"sum_hessian":[1.5803175E2,7.784095E1,8.01908E1,3.378473E1,4.405622E1,5.966901E1,2.052179E1,1.5548671E1,1.823606E1,2.961798E0,4.109442E1,5.2544044E1,7.124967E0,1.3860639E1,6.6611505E0,1.7131473E0,1.3835524E1,5.933207E0,1.2302853E1,1.4833295E0,1.4784684E0,5.105071E1,1.4933373E0,3.9754426E0,3.1495247E0,4.187616E0,9.673022E0,1.9852718E0,4.675879E0,1.7127814E0,1.2122742E1,1.9753255E0,3.957882E0,1.2332163E0,1.1069636E1,3.391222E1,1.7138489E1,1.2420471E0,2.7333956E0,7.436164E0,2.2368588E0,1.2476299E0,3.428249E0],"tree_param":{"num_deleted":"0","num_feature":"13","num_nodes":"43","size_leaf_vector":"1"}},{"base_weights":[2.3393522E-3,-8.3559203E-1,7.9017186E-1,-7.071029E-2,-1.4467018E0,9.822427E-1,-6.364871E-1,6.201314E-1,-9.939847E-1,-2.2552584E-1,-1.5219282E-1,4.043857E-1,1.2292573E0,1.2322761E-1,-1.2746764E0,-3.082408E-2,1.2878337E0,1.07389994E-1,-1.508513E-1,5.530393E-2,-9.864061E-2,7.226259E-1,-3.2537422E-1,1.3159968E0,-3.4235477E-2,-3.468866E-2,-1.4999585E-1,1.308181E-1,-7.860839E-2,1.4318216E-1,3.433531E-2,9.248435E-2,-1.1914803E-1,1.12289146E-1,-1.2987545E-1,-1.19095445E-1,2.7584646E-2,1.4006887E-1,-2.0580722E-2],"categories":[],"categories_nodes":[],"categories_segments":[],"categories_sizes":[],"default_left":[0,0,0,0,0,0,0,0,0,0,0,0,0,0,0,0,0,0,0,0,0,0,0,0,0,0,0,0,0,0,0,0,0,0,0,0,0,0,0],"id":3,"left_children":[1,3,5,7,9,11,13,15,17,19,-1,21,23,-1,25,27,29,31,-1,-1,-1,33,35,37,-1,-1,-1,-1,-1,-1,-1,-1,-1,-1,-1,-1,-1,-1,-1],"loss_changes":[1.068916E2,3.6575108E1,2.3493076E1,2.3514887E1,3.658989E0,1.0057671E1,1.4104038E1,9.232753E0,9.087057E0,2.738565E0,0E0,5.7237463E0,7.445282E0,0E0,1.2197866E0,1.2846663E1,9.314785E-1,7.417767E0,0E0,0E0,0E0,1.502462E1,4.422119E0,6.5821686E0,0E0,0E0,0E0,0E0,0E0,0E0,0E0,0E0,0E0,0E0,0E0,0E0,0E0,0E0,0E0],"parents":[2147483647,0,0,1,1,2,2,3,3,4,4,5,5,6,6,7,7,8,8,9,9,11,11,12,12,14,14,15,15,16,16,17,17,21,21,22,22,23,23],"right_children":[2,4,6,8,10,12,14,16,18,20,-1,22,24,-1,26,28,30,32,-1,-1,-1,34,36,38,-1,-1,-1,-1,-1,-1,-1,-1,-1,-1,-1,-1,-1,-1,-1],"split_conditions":[5.5931233E-2,2.3862459E-1,7.905523E-1,1.0898517E0,-1.2343783E0,1.6899058E-1,-6.241209E-1,9.9543333E-1,-4.0146467E-1,-4.8452735E-2,-1.5219282E-1,1.0898517E0,1.8498958E0,1.2322761E-1,1.2162726E0,8.912549E-1,5.235872E-1,-2.1331333E-1,-1.508513E-1,5.530393E-2,-9.864061E-2,1.2092206E0,-7.0078266E-1,1.0549182E0,-3.4235477E-2,-3.468866E-2,-1.4999585E-1,1.308181E-1,-7.860839E-2,1.4318216E-1,3.433531E-2,9.248435E-2,-1.1914803E-1,1.12289146E-1,-1.2987545E-1,-1.19095445E-1,2.7584646E-2,1.4006887E-1,-2.0580722E-2],"split_indices":[2,11,9,12,3,7,10,10,9,7,0,12,3,0,9,6,4,4,0,0,0,11,7,0,0,0,0,0,0,0,0,0,0,0,0,0,0,0,0],"split_type":[0,0,0,0,0,0,0,0,0,0,0,0,0,0,0,0,0,0,0,0,0,0,0,0,0,0,0,0,0,0,0,0,0,0,0,0,0,0,0],"sum_hessian":[1.599201E2,7.746666E1,8.2453445E1,3.490025E1,4.2566406E1,7.294445E1,9.50899E0,2.0150751E1,1.4749499E1,2.701996E0,3.986441E1,2.2633514E1,5.0310936E1,2.1837072E0,7.3252835E0,1.0686307E1,9.464444E0,4.948424E0,9.801076E0,1.4704882E0,1.2315078E0,1.5767332E1,6.866183E0,4.783358E1,2.477356E0,1.9273924E0,5.397891E0,3.589812E0,7.096495E0,7.764711E0,1.6997339E0,3.2137747E0,1.7346493E0,1.3532228E1,2.2351038E0,2.4122958E0,4.453887E0,4.538726E1,2.4463208E0],"tree_param":{"num_deleted":"0","num_feature":"13","num_nodes":"39","size_leaf_vector":"1"}},{"base_weights":[5.702586E-3,-8.0188096E-1,7.9946727E-1,-6.004272E-2,-1.3999283E-1,1.0572925E0,2.4504183E-2,7.0819414E-1,-1.0964123E0,1.193411E0,6.635215E-2,-3.4197006E-1,7.413689E-1,-1.031902E-1,8.7042314E-1,-2.210575E-1,-1.4286338E-1,1.2422013E0,-2.708753E-2,-9.4771826E-1,1.0145694E-1,3.1467056E-1,-8.008053E-1,-2.8168863E-2,1.1742511E-1,1.2807378E-1,9.628571E-3,4.824817E-2,-1.1011133E-1,2.620152E-2,1.2998089E-1,-1.2011758E-1,-1.632163E-2,1.20638266E-1,-5.004489E-2,-1.2734953E-1,3.797045E-2],"categories":[],"categories_nodes":[],"categories_segments":[],"categories_sizes":[],"default_left":[0,0,0,0,0,0,0,0,0,0,0,0,0,0,0,0,0,0,0,0,0,0,0,0,0,0,0,0,0,0,0,0,0,0,0,0,0],"id":4,"left_children":[1,3,5,7,-1,9,11,13,15,17,19,21,23,-1,25,27,-1,29,-1,31,-1,33,35,-1,-1,-1,-1,-1,-1,-1,-1,-1,-1,-1,-1,-1,-1],"loss_changes":[9.863157E1,3.375416E1,1.5477413E1,2.8712765E1,0E0,7.7709274E0,5.611244E0,6.7581387E0,4.142254E0,3.9879837E0,8.738309E0,4.5240726E0,3.5258286E0,0E0,6.080349E0,3.8749974E0,0E0,2.462494E0,0E0,6.838393E-1,0E0,5.3648777E0,5.2986345E0,0E0,0E0,0E0,0E0,0E0,0E0,0E0,0E0,0E0,0E0,0E0,0E0,0E0,0E0],"parents":[2147483647,0,0,1,1,2,2,3,3,5,5,6,6,7,7,8,8,9,9,10,10,11,11,12,12,14,14,15,15,17,17,19,19,21,21,22,22],"right_children":[2,4,6,8,-1,10,12,14,16,18,20,22,24,-1,26,28,-1,30,-1,32,-1,34,36,-1,-1,-1,-1,-1,-1,-1,-1,-1,-1,-1,-1,-1,-1],"split_conditions":[5.5931233E-2,2.3862459E-1,1.0898517E0,1.0898517E0,-1.3999283E-1,1.2092206E0,9.9543333E-1,-1.3531126E0,-4.0146467E-1,1.4717048E0,1.6899058E-1,-3.2051933E-1,8.912549E-1,-1.031902E-1,1.4039283E0,-2.1331333E-1,-1.4286338E-1,-5.221223E-1,-2.708753E-2,8.34359E-1,1.0145694E-1,-1.4603247E-1,1.9993045E0,-2.8168863E-2,1.1742511E-1,1.2807378E-1,9.628571E-3,4.824817E-2,-1.1011133E-1,2.620152E-2,1.2998089E-1,-1.2011758E-1,-1.632163E-2,1.20638266E-1,-5.004489E-2,-1.2734953E-1,3.797045E-2],"split_indices":[2,11,12,12,0,11,10,7,9,9,7,3,6,0,8,4,0,12,0,0,0,9,2,0,0,0,0,0,0,0,0,0,0,0,0,0,0],"split_type":[0,0,0,0,0,0,0,0,0,0,0,0,0,0,0,0,0,0,0,0,0,0,0,0,0,0,0,0,0,0,0,0,0,0,0,0,0],"sum_hessian":[1.5186383E2,7.527159E1,7.659224E1,3.408803E1,4.118356E1,5.719839E1,1.939385E1,1.975831E1,1.4329721E1,5.011071E1,7.087681E0,1.3179312E1,6.214539E0,1.2278119E0,1.8530499E1,4.4004846E0,9.929236E0,4.864163E1,1.469081E0,3.4251657E0,3.6625154E0,5.550364E0,7.6289473E0,1.9515623E0,4.2629766E0,1.1683505E1,6.846993E0,2.6965518E0,1.7039328E0,3.0080585E0,4.563357E1,2.1873448E0,1.2378207E0,2.4214144E0,3.1289499E0,5.3914003E0,2.237547E0],"tree_param":{"num_deleted":"0","num_feature":"13","num_nodes":"37","size_leaf_vector":"1"}},{"base_weights":[1.789275E-2,5.7185876E-1,-8.29345E-1,9.9640256E-1,-2.4872646E-1,-8.7028965E-2,-1.2030646E0,1.1067963E0,-5.799891E-1,-1.1065894E0,4.0546685E-1,9.5558566E-1,-4.9219447E-1,-1.318E0,1.1795388E-1,7.6732177E-1,1.3869507E0,-1.12901986E-1,2.2321677E-2,5.2987628E-2,-1.3559659E-1,-1.2257061E-1,6.392917E-1,1.1044729E-1,1.7248657E-2,5.396431E-1,-9.868146E-1,-1.4289747E-1,-7.669921E-1,-5.629055E-2,9.5605984E-2,1.2437212E-1,1.537516E-2,1.4176308E-1,3.0089248E-2,8.0435E-2,-8.0613084E-2,9.9565275E-2,1.0937388E-2,-5.0005713E-3,1.1340101E-1,-1.3598046E-1,7.126503E-2,1.2387243E-2,-1.092528E-1],"categories":[],"categories_nodes":[],"categories_segments":[],"categories_sizes":[],"default_left":[0,0,0,0,0,0,0,0,0,0,0,0,0,0,0,0,0,0,0,0,0,0,0,0,0,0,0,0,0,0,0,0,0,0,0,0,0,0,0,0,0,0,0,0,0],"id":5,"left_children":[1,3,5,7,9,11,13,15,17,19,21,23,25,27,29,31,33,-1,-1,35,-1,-1,37,-1,-1,39,41,-1,43,-1,-1,-1,-1,-1,-1,-1,-1,-1,-1,-1,-1,-1,-1,-1,-1],"loss_changes":[7.156615E1,3.2360718E1,1.6621521E1,1.1248543E1,1.8536438E1,9.4544935E0,6.2324905E0,4.385689E0,2.3004143E0,4.1816998E0,8.0370245E0,5.430765E-1,8.686127E0,1.1605453E0,2.8900228E0,8.036398E0,5.782738E-1,0E0,0E0,2.8934436E0,0E0,0E0,3.1562548E0,0E0,0E0,2.0975428E0,8.038608E0,0E0,2.5554824E0,0E0,0E0,0E0,0E0,0E0,0E0,0E0,0E0,0E0,0E0,0E0,0E0,0E0,0E0,0E0,0E0],"parents":[2147483647,0,0,1,1,2,2,3,3,4,4,5,5,6,6,7,7,8,8,9,9,10,10,11,11,12,12,13,13,14,14,15,15,16,16,19,19,22,22,25,25,26,26,28,28],"right_children":[2,4,6,8,10,12,14,16,18,20,22,24,26,28,30,32,34,-1,-1,36,-1,-1,38,-1,-1,40,42,-1,44,-1,-1,-1,-1,-1,-1,-1,-1,-1,-1,-1,-1,-1,-1,-1,-1],"split_conditions":[1.0898517E0,2.3862459E-1,-3.163206E-1,1.4717048E0,5.5931233E-2,-5.489841E-1,1.9993045E0,5.168999E-1,-4.8452735E-2,6.615041E-1,-5.221223E-1,6.2402092E-2,-3.4905815E-1,1.0276179E0,-9.301139E-1,-1.7452908E-1,7.2407943E-1,-1.12901986E-1,2.2321677E-2,-2.6589605E-1,-1.3559659E-1,-1.2257061E-1,1.2092206E0,1.1044729E-1,1.7248657E-2,5.5931233E-2,6.1379987E-1,-1.4289747E-1,-5.489841E-1,-5.629055E-2,9.5605984E-2,1.2437212E-1,1.537516E-2,1.4176308E-1,3.0089248E-2,8.0435E-2,-8.0613084E-2,9.9565275E-2,1.0937388E-2,-5.0005713E-3,1.1340101E-1,-1.3598046E-1,7.126503E-2,1.2387243E-2,-1.092528E-1],"split_indices":[12,11,9,9,2,3,2,7,7,1,12,0,4,2,0,4,0,0,0,7,0,0,11,0,0,2,0,0,3,0,0,0,0,0,0,0,0,0,0,0,0,0,0,0,0],"split_type":[0,0,0,0,0,0,0,0,0,0,0,0,0,0,0,0,0,0,0,0,0,0,0,0,0,0,0,0,0,0,0,0,0,0,0,0,0,0,0,0,0,0,0,0,0],"sum_hessian":[1.5047174E2,9.117925E1,5.929248E1,5.9949234E1,3.123002E1,2.026773E1,3.902475E1,5.630418E1,3.6450534E0,1.321252E1,1.80175E1,5.291802E0,1.4975929E1,3.5903267E1,3.1214828E0,2.7147444E1,2.9156736E1,1.9241558E0,1.7208976E0,2.4779236E0,1.0734596E1,1.7271107E0,1.629039E1,4.101596E0,1.1902059E0,4.823176E0,1.0152754E1,2.855817E1,7.3450975E0,1.9034889E0,1.2179939E0,1.4703815E1,1.2443628E1,2.8058804E1,1.097933E0,1.3558674E0,1.1220564E0,9.214744E0,7.075646E0,2.8809564E0,1.9422194E0,8.489406E0,1.6633482E0,2.1314988E0,5.2135987E0],"tree_param":{"num_deleted":"0","num_feature":"13","num_nodes":"45","size_leaf_vector":"1"}},{"base_weights":[1.5261104E-2,5.458981E-1,-7.4878585E-1,9.5922834E-1,-2.619888E-1,6.866628E-2,-1.1206024E0,1.0655314E0,-6.3386285E-1,-8.420293E-1,5.274708E-1,5.9614635E-1,-5.504872E-1,-1.2477661E0,2.2804318E-1,1.3105E0,4.416932E-1,-1.03878476E-1,5.7232087E-3,-1.202763E0,1.1372527E-1,1.2730293E-1,-4.0164545E-1,1.1469969E0,-2.9651132E-1,8.985023E-2,-9.4644564E-1,-1.3731344E-1,-7.162173E-1,-5.176262E-2,1.01118766E-1,1.3312896E-1,4.755085E-2,1.14814155E-1,-1.3721247E-2,-1.2935981E-1,-2.1840163E-2,7.5093724E-2,-9.47083E-2,-1.18500434E-1,1.0510524E-1,-7.4056066E-3,1.3997556E-1,3.7623096E-2,-7.258593E-2,5.9647776E-2,-1.3739073E-1,-1.0760414E-1,1.3710654E-2],"categories":[],"categories_nodes":[],"categories_segments":[],"categories_sizes":[],"default_left":[0,0,0,0,0,0,0,0,0,0,0,0,0,0,0,0,0,0,0,0,0,0,0,0,0,0,0,0,0,0,0,0,0,0,0,0,0,0,0,0,0,0,0,0,0,0,0,0,0],"id":6,"left_children":[1,3,5,7,9,11,13,15,17,19,21,23,25,27,29,31,33,-1,-1,35,37,-1,39,41,43,-1,45,-1,47,-1,-1,-1,-1,-1,-1,-1,-1,-1,-1,-1,-1,-1,-1,-1,-1,-1,-1,-1,-1],"loss_changes":[5.8103703E1,2.8487411E1,1.7932495E1,1.018502E1,1.3909205E1,6.6343036E0,7.2195473E0,7.5227966E0,1.2178763E0,6.113719E0,9.56438E0,5.703024E0,6.244976E0,1.4893723E0,3.0518787E0,1.8928528E-2,6.887577E0,0E0,0E0,8.5054016E-1,4.5397344E0,0E0,8.731679E0,2.248619E0,1.7047423E0,0E0,6.0111256E0,0E0,2.9637742E0,0E0,0E0,0E0,0E0,0E0,0E0,0E0,0E0,0E0,0E0,0E0,0E0,0E0,0E0,0E0,0E0,0E0,0E0,0E0,0E0],"parents":[2147483647,0,0,1,1,2,2,3,3,4,4,5,5,6,6,7,7,8,8,9,9,10,10,11,11,12,12,13,13,14,14,15,15,16,16,19,19,20,20,22,22,23,23,24,24,26,26,28,28],"right_children":[2,4,6,8,10,12,14,16,18,20,22,24,26,28,30,32,34,-1,-1,36,38,-1,40,42,44,-1,46,-1,48,-1,-1,-1,-1,-1,-1,-1,-1,-1,-1,-1,-1,-1,-1,-1,-1,-1,-1,-1,-1],"split_conditions":[1.0898517E0,2.3862459E-1,-3.163206E-1,1.4717048E0,1.0276179E0,-9.6960604E-2,1.9993045E0,3.9324078E-1,-4.8452735E-2,8.912549E-1,-4.0146467E-1,2.3862459E-1,-5.489841E-1,1.0276179E0,-5.489841E-1,2.3873303E0,-2.3270544E-1,-1.03878476E-1,5.7232087E-3,1.4960364E0,2.1798167E0,1.2730293E-1,4.791073E-1,-8.1983435E-1,-3.2051933E-1,8.985023E-2,-6.5729403E-1,-1.3731344E-1,8.201326E-2,-5.176262E-2,1.01118766E-1,1.3312896E-1,4.755085E-2,1.14814155E-1,-1.3721247E-2,-1.2935981E-1,-2.1840163E-2,7.5093724E-2,-9.47083E-2,-1.18500434E-1,1.0510524E-1,-7.4056066E-3,1.3997556E-1,3.7623096E-2,-7.258593E-2,5.9647776E-2,-1.3739073E-1,-1.0760414E-1,1.3710654E-2],"split_indices":[12,11,9,9,2,4,2,0,7,6,9,11,3,2,3,5,4,0,0,0,11,0,3,0,3,0,7,0,7,0,0,0,0,0,0,0,0,0,0,0,0,0,0,0,0,0,0,0,0],"split_type":[0,0,0,0,0,0,0,0,0,0,0,0,0,0,0,0,0,0,0,0,0,0,0,0,0,0,0,0,0,0,0,0,0,0,0,0,0,0,0,0,0,0,0,0,0,0,0,0,0],"sum_hessian":[1.41305E2,8.355846E1,5.774653E1,5.5153534E1,2.8404922E1,1.8308952E1,3.9437576E1,5.201393E1,3.1396048E0,1.6335865E1,1.2069057E1,9.906443E0,8.40251E0,3.6107773E1,3.3298025E0,3.6557735E1,1.5456193E1,1.6624519E0,1.4771528E0,1.1672015E1,4.663851E0,6.490601E0,5.5784564E0,5.949896E0,3.9565473E0,1.5309378E0,6.871572E0,2.7935734E1,8.17204E0,1.8793882E0,1.4504142E0,3.5089706E1,1.4680299E0,6.518393E0,8.9378E0,1.0398327E1,1.2736884E0,3.0961483E0,1.5677025E0,3.74387E0,1.8345867E0,1.1416597E0,4.808236E0,1.5895727E0,2.3669746E0,1.404963E0,5.4666095E0,5.564597E0,2.607443E0],"tree_param":{"num_deleted":"0","num_feature":"13","num_nodes":"49","size_leaf_vector":"1"}},{"base_weights":[-1.515708E-2,4.9662662E-1,-7.3619425E-1,9.013415E-1,-2.3736143E-1,-1.0815569E0,-9.408999E-2,1.1257415E0,2.3258495E-1,-8.645139E-1,6.0132635E-1,-4.5869696E-1,-1.3080418E-1,1.00258306E-1,-2.82958E-1,1.2748549E0,-1.5651573E-1,-3.8271195E-1,7.67414E-1,-1.2049891E0,1.658247E-1,1.2324055E-1,-1.872358E-1,1.0836633E-1,-7.435138E-1,5.1153917E-2,-7.7203524E-1,4.158829E-2,1.3293616E-1,-1.09289885E-1,7.7636056E-2,1.4253636E-2,-1.5068118E-1,9.976492E-2,-3.2877594E-2,-1.290995E-1,-3.8978282E-2,7.4805714E-2,-8.664591E-2,-9.189307E-2,1.03125446E-1,-1.9830883E-2,-1.1889204E-1,3.3813957E-2,-7.33293E-2,-1.180853E-1,-2.949034E-2],"categories":[],"categories_nodes":[],"categories_segments":[],"categories_sizes":[],"default_left":[0,0,0,0,0,0,0,0,0,0,0,0,0,0,0,0,0,0,0,0,0,0,0,0,0,0,0,0,0,0,0,0,0,0,0,0,0,0,0,0,0,0,0,0,0,0,0],"id":7,"left_children":[1,3,5,7,9,11,13,15,17,19,21,23,-1,-1,25,27,29,31,33,35,37,-1,39,-1,41,43,45,-1,-1,-1,-1,-1,-1,-1,-1,-1,-1,-1,-1,-1,-1,-1,-1,-1,-1,-1,-1],"loss_changes":[5.073595E1,2.4106522E1,1.25536E1,7.549717E0,1.5972362E1,4.621441E0,4.6446624E0,7.601837E0,5.012163E0,6.240365E0,6.779313E0,5.81803E0,0E0,0E0,3.101935E0,1.0760422E0,5.1495323E0,4.5455074E0,2.347951E0,4.1269493E-1,3.7469604E0,0E0,6.9369774E0,0E0,2.24713E0,2.9657774E0,1.1476274E0,0E0,0E0,0E0,0E0,0E0,0E0,0E0,0E0,0E0,0E0,0E0,0E0,0E0,0E0,0E0,0E0,0E0,0E0,0E0,0E0],"parents":[2147483647,0,0,1,1,2,2,3,3,4,4,5,5,6,6,7,7,8,8,9,9,10,10,11,11,14,14,15,15,16,16,17,17,18,18,19,19,20,20,22,22,24,24,25,25,26,26],"right_children":[2,4,6,8,10,12,14,16,18,20,22,24,-1,-1,26,28,30,32,34,36,38,-1,40,-1,42,44,46,-1,-1,-1,-1,-1,-1,-1,-1,-1,-1,-1,-1,-1,-1,-1,-1,-1,-1,-1,-1],"split_conditions":[1.0898517E0,2.3862459E-1,5.5931233E-2,5.035203E-1,1.0276179E0,-4.0146467E-1,-1.2343783E0,6.202642E-1,-8.2718503E-1,8.912549E-1,-4.0146467E-1,-1.6140445E0,-1.3080418E-1,1.00258306E-1,2.3862459E-1,-1.2343783E0,-4.8452735E-2,1.5513697E0,1.1311285E0,1.4960364E0,2.1798167E0,1.2324055E-1,4.791073E-1,1.0836633E-1,-2.1331333E-1,1.4039283E0,8.912549E-1,4.158829E-2,1.3293616E-1,-1.09289885E-1,7.7636056E-2,1.4253636E-2,-1.5068118E-1,9.976492E-2,-3.2877594E-2,-1.290995E-1,-3.8978282E-2,7.4805714E-2,-8.664591E-2,-9.189307E-2,1.03125446E-1,-1.9830883E-2,-1.1889204E-1,3.3813957E-2,-7.33293E-2,-1.180853E-1,-2.949034E-2],"split_indices":[12,11,2,0,2,9,3,9,9,6,9,7,0,0,11,3,7,4,9,0,11,0,3,0,4,8,6,0,0,0,0,0,0,0,0,0,0,0,0,0,0,0,0,0,0,0,0],"split_type":[0,0,0,0,0,0,0,0,0,0,0,0,0,0,0,0,0,0,0,0,0,0,0,0,0,0,0,0,0,0,0,0,0,0,0,0,0,0,0,0,0,0,0,0,0,0,0],"sum_hessian":[1.354994E2,7.943127E1,5.6068146E1,5.105304E1,2.8378223E1,3.6013504E1,2.0054644E1,3.771463E1,1.3338409E1,1.6219124E1,1.2159101E1,1.0410023E1,2.5603481E1,2.3133957E0,1.7741247E1,3.379087E1,3.9237585E0,6.3348594E0,7.0035505E0,1.2063301E1,4.1558228E0,6.441319E0,5.7177815E0,1.1854916E0,9.224531E0,1.1072502E1,6.668745E0,2.5312278E0,3.1259645E1,1.8725911E0,2.0511672E0,4.912594E0,1.4222654E0,5.8621945E0,1.1413559E0,1.0384112E1,1.6791883E0,2.8331802E0,1.3226427E0,3.7261183E0,1.9916632E0,4.797422E0,4.427109E0,8.523259E0,2.549243E0,2.7971678E0,3.8715775E0],"tree_param":{"num_deleted":"0","num_feature":"13","num_nodes":"47","size_leaf_vector":"1"}},{"base_weights":[2.6974427E-2,-5.9868777E-1,5.612115E-1,1.0940455E-2,-1.0930395E0,7.078682E-1,-5.655717E-1,5.9157646E-1,-7.50271E-1,-1.2350273E0,-4.2988902E-1,9.866499E-1,2.1382873E-1,1.070825E-1,-1.2106246E-1,9.7094893E-1,-3.6127184E-2,1.5367728E-2,-1.16759956E-1,-3.6459383E-2,-1.2786275E-1,-1.08506456E-1,8.028249E-1,-1.15657344E-1,1.0975252E0,7.806316E-1,-2.676052E-1,1.116791E-1,-2.6465675E-3,-8.874076E-2,6.2324524E-2,-1.1768448E-1,7.342034E-2,1.0237604E-1,1.7727476E-2,7.498726E-2,-5.765446E-2,4.3943126E-2,1.2013117E-1,-2.7119923E-2,1.06825486E-1,7.3065765E-2,-1.4034681E-1],"categories":[],"categories_nodes":[],"categories_segments":[],"categories_sizes":[],"default_left":[0,0,0,0,0,0,0,0,0,0,0,0,0,0,0,0,0,0,0,0,0,0,0,0,0,0,0,0,0,0,0,0,0,0,0,0,0,0,0,0,0,0,0],"id":8,"left_children":[1,3,5,7,9,11,13,15,17,19,21,23,25,-1,-1,27,29,31,-1,-1,-1,-1,33,35,37,39,41,-1,-1,-1,-1,-1,-1,-1,-1,-1,-1,-1,-1,-1,-1,-1,-1],"loss_changes":[4.428712E1,1.84098E1,1.2206463E1,1.2963756E1,2.6441994E0,8.5568695E0,1.0568167E1,3.9948392E0,4.0752807E0,5.676079E-1,6.9128227E0,5.0669136E0,6.823723E0,0E0,0E0,1.5424213E0,4.6103015E0,5.5489993E0,0E0,0E0,0E0,0E0,2.567439E-1,2.2667942E0,1.9869919E0,3.7351346E0,1.6732407E1,0E0,0E0,0E0,0E0,0E0,0E0,0E0,0E0,0E0,0E0,0E0,0E0,0E0,0E0,0E0,0E0],"parents":[2147483647,0,0,1,1,2,2,3,3,4,4,5,5,6,6,7,7,8,8,9,9,10,10,11,11,12,12,15,15,16,16,17,17,22,22,23,23,24,24,25,25,26,26],"right_children":[2,4,6,8,10,12,14,16,18,20,22,24,26,-1,-1,28,30,32,-1,-1,-1,-1,34,36,38,40,42,-1,-1,-1,-1,-1,-1,-1,-1,-1,-1,-1,-1,-1,-1,-1,-1],"split_conditions":[5.5931233E-2,2.3862459E-1,7.905523E-1,1.0898517E0,1.0549182E0,2.8296122E-1,-6.241209E-1,1.4039283E0,-4.0146467E-1,-1.2343783E0,8.912549E-1,-2.6589605E-1,0E0,1.070825E-1,-1.2106246E-1,5.235872E-1,-1.7891872E-1,-1.3712322E0,-1.16759956E-1,-3.6459383E-2,-1.2786275E-1,-1.08506456E-1,1.3857569E0,-1.0052034E0,-1.1201459E0,3.9324078E-1,6.615041E-1,1.116791E-1,-2.6465675E-3,-8.874076E-2,6.2324524E-2,-1.1768448E-1,7.342034E-2,1.0237604E-1,1.7727476E-2,7.498726E-2,-5.765446E-2,4.3943126E-2,1.2013117E-1,-2.7119923E-2,1.06825486E-1,7.3065765E-2,-1.4034681E-1],"split_indices":[2,11,9,12,0,0,10,8,9,3,6,7,4,0,0,4,7,0,0,0,0,0,0,7,3,0,1,0,0,0,0,0,0,0,0,0,0,0,0,0,0,0,0],"split_type":[0,0,0,0,0,0,0,0,0,0,0,0,0,0,0,0,0,0,0,0,0,0,0,0,0,0,0,0,0,0,0,0,0,0,0,0,0,0,0,0,0,0,0],"sum_hessian":[1.3049101E2,6.0047188E1,7.0443825E1,2.732644E1,3.272075E1,6.2660072E1,7.783754E0,1.5628331E1,1.1698111E1,2.6240091E1,6.4806557E0,3.9419136E1,2.3240938E1,2.0141408E0,5.7696133E0,9.400198E0,6.2281327E0,4.4666624E0,7.231448E0,1.6982584E0,2.4541834E1,4.3098097E0,2.170846E0,3.5986598E0,3.5820477E1,1.0388662E1,1.2852276E1,8.096623E0,1.3035746E0,2.5675151E0,3.6606178E0,1.4404593E0,3.0262034E0,1.133821E0,1.0370251E0,1.0325493E0,2.5661104E0,5.5926027E0,3.0227873E1,2.2430372E0,8.145625E0,7.0303392E0,5.821936E0],"tree_param":{"num_deleted":"0","num_feature":"13","num_nodes":"43","size_leaf_vector":"1"}},{"base_weights":[-2.4146581E-2,-6.393922E-1,5.062455E-1,9.613419E-3,-1.1612024E0,8.7448955E-1,-4.5882586E-2,6.274078E-1,-7.9848623E-1,-1.2548868E-1,-7.3808676E-1,1.4913584E-1,1.0794476E0,7.0442134E-1,-5.4541415E-1,1.1010636E0,-4.493233E-2,-3.1415313E-2,-1.1575754E-1,6.362813E-2,-1.0271631E0,-3.3171275E-1,7.644878E-1,1.1391551E0,-3.614588E-2,-2.2523418E-1,1.2650001E-1,1.0267448E-1,-1.3443604E0,1.1741739E-1,2.729599E-2,-4.971084E-2,9.442021E-2,-1.1123748E-1,7.251655E-2,-2.8863404E-2,-1.1158265E-1,8.417093E-2,-1.0041038E-1,9.615453E-2,2.3942776E-2,1.24139786E-1,6.4079404E-2,8.70066E-2,-1.0200947E-1,7.4721135E-2,-1.0283722E-1,-1.5496989E-1,1.09984445E-4],"categories":[],"categories_nodes":[],"categories_segments":[],"categories_sizes":[],"default_left":[0,0,0,0,0,0,0,0,0,0,0,0,0,0,0,0,0,0,0,0,0,0,0,0,0,0,0,0,0,0,0,0,0,0,0,0,0,0,0,0,0,0,0,0,0,0,0,0,0],"id":9,"left_children":[1,3,5,7,9,11,13,15,17,-1,19,21,23,25,27,29,31,33,-1,-1,35,37,39,41,-1,43,-1,45,47,-1,-1,-1,-1,-1,-1,-1,-1,-1,-1,-1,-1,-1,-1,-1,-1,-1,-1,-1,-1],"loss_changes":[4.165974E1,2.0021494E1,1.3984808E1,1.4143099E1,3.7242508E-1,5.9632263E0,1.1025346E1,5.1595755E0,3.3459601E0,0E0,3.977787E0,3.2822838E0,3.1612282E0,6.426011E0,9.25506E0,2.5183392E-1,3.8654335E0,4.8494744E0,0E0,0E0,1.5565157E-1,5.928904E0,2.6565075E-1,7.803955E-1,0E0,5.485737E0,0E0,8.532782E0,2.2000113E0,0E0,0E0,0E0,0E0,0E0,0E0,0E0,0E0,0E0,0E0,0E0,0E0,0E0,0E0,0E0,0E0,0E0,0E0,0E0,0E0],"parents":[2147483647,0,0,1,1,2,2,3,3,4,4,5,5,6,6,7,7,8,8,10,10,11,11,12,12,13,13,14,14,15,15,16,16,17,17,20,20,21,21,22,22,23,23,25,25,27,27,28,28],"right_children":[2,4,6,8,10,12,14,16,18,-1,20,22,24,26,28,30,32,34,-1,-1,36,38,40,42,-1,44,-1,46,48,-1,-1,-1,-1,-1,-1,-1,-1,-1,-1,-1,-1,-1,-1,-1,-1,-1,-1,-1,-1],"split_conditions":[5.5931233E-2,2.3862459E-1,2.8296122E-1,1.0898517E0,1.0549182E0,1.6899058E-1,6.615041E-1,1.4039283E0,-4.8660874E-1,-1.2548868E-1,1.1651977E0,-4.889957E-1,1.9955144E0,9.4463855E-1,0E0,5.235872E-1,9.9543333E-1,-1.3712322E0,-1.1575754E-1,6.362813E-2,-4.2662665E-1,-1.0403935E0,-2.6843658E-1,1.0898517E0,-3.614588E-2,2.3862459E-1,1.2650001E-1,7.054082E-1,8.7569636E-1,1.1741739E-1,2.729599E-2,-4.971084E-2,9.442021E-2,-1.1123748E-1,7.251655E-2,-2.8863404E-2,-1.1158265E-1,8.417093E-2,-1.0041038E-1,9.615453E-2,2.3942776E-2,1.24139786E-1,6.4079404E-2,8.70066E-2,-1.0200947E-1,7.4721135E-2,-1.0283722E-1,-1.5496989E-1,1.09984445E-4],"split_indices":[2,11,0,12,0,7,1,8,9,0,0,0,7,0,4,4,10,0,0,0,4,0,0,12,0,11,0,9,9,0,0,0,0,0,0,0,0,0,0,0,0,0,0,0,0,0,0,0,0],"split_type":[0,0,0,0,0,0,0,0,0,0,0,0,0,0,0,0,0,0,0,0,0,0,0,0,0,0,0,0,0,0,0,0,0,0,0,0,0,0,0,0,0,0,0,0,0,0,0,0,0],"sum_hessian":[1.256728E2,5.8087177E1,6.7585625E1,2.6325813E1,3.1761362E1,4.0194134E1,2.739149E1,1.5046401E1,1.1279413E1,2.4394272E1,7.3670907E0,9.235836E0,3.0958298E1,1.0783838E1,1.6607653E1,8.453411E0,6.59299E0,3.9433284E0,7.336085E0,1.0715396E0,6.2955513E0,5.4432826E0,3.792554E0,2.9927591E1,1.0307057E0,4.281565E0,6.502273E0,9.650695E0,6.956957E0,7.3836317E0,1.0697795E0,4.865974E0,1.727016E0,1.4299837E0,2.5133445E0,1.1309125E0,5.1646385E0,1.8911427E0,3.5521398E0,2.1531582E0,1.6393957E0,2.3595774E1,6.3318186E0,1.7607187E0,2.5208464E0,6.363667E0,3.2870283E0,5.9040995E0,1.0528574E0],"tree_param":{"num_deleted":"0","num_feature":"13","num_nodes":"49","size_leaf_vector":"1"}},{"base_weights":[-1.02370065E-2,-5.729369E-1,5.153522E-1,-4.3666184E-2,-1.0237163E0,9.161744E-1,8.310817E-3,4.401501E-1,-6.503388E-1,-3.2455167E-3,-1.1065316E0,9.89994E-1,-7.7535614E-2,7.221603E-1,-4.086414E-1,-1.0679078E-1,6.390634E-1,7.3246425E-4,-1.1012348E-1,8.066957E-2,-8.0402166E-2,-5.195033E-1,-1.152841E-1,1.4772113E-1,1.0770923E0,-1.5799372E-1,1.214499E-1,1.3040008E-1,-1.2326752E0,9.571703E-2,-9.756042E-3,6.410251E-2,-9.7471155E-2,1.4229427E-2,-8.2334004E-2,6.3500606E-2,-7.355862E-2,5.4171633E-2,1.1691421E-1,8.400907E-2,-9.320935E-2,4.767277E-2,-1.00239635E-1,-1.425346E-1,1.04342E-4],"categories":[],"categories_nodes":[],"categories_segments":[],"categories_sizes":[],"default_left":[0,0,0,0,0,0,0,0,0,0,0,0,0,0,0,0,0,0,0,0,0,0,0,0,0,0,0,0,0,0,0,0,0,0,0,0,0,0,0,0,0,0,0,0,0],"id":10,"left_children":[1,3,5,7,9,11,13,15,17,19,21,23,-1,25,27,-1,29,31,-1,-1,-1,33,-1,35,37,39,-1,41,43,-1,-1,-1,-1,-1,-1,-1,-1,-1,-1,-1,-1,-1,-1,-1,-1],"loss_changes":[3.7359367E1,1.4508516E1,1.32685375E1,8.827923E0,2.7765732E0,5.322111E0,9.179696E0,5.7178535E0,3.909587E0,2.9006612E0,2.2819138E-1,2.4370193E0,0E0,5.1179137E0,8.814536E0,0E0,3.7150378E0,4.6516776E0,0E0,0E0,0E0,9.3050194E-1,0E0,2.393448E0,9.3937683E-1,4.6173162E0,0E0,5.453313E0,1.855588E0,0E0,0E0,0E0,0E0,0E0,0E0,0E0,0E0,0E0,0E0,0E0,0E0,0E0,0E0,0E0,0E0],"parents":[2147483647,0,0,1,1,2,2,3,3,4,4,5,5,6,6,7,7,8,8,9,9,10,10,11,11,13,13,14,14,16,16,17,17,21,21,23,23,24,24,25,25,27,27,28,28],"right_children":[2,4,6,8,10,12,14,16,18,20,22,24,-1,26,28,-1,30,32,-1,-1,-1,34,-1,36,38,40,-1,42,44,-1,-1,-1,-1,-1,-1,-1,-1,-1,-1,-1,-1,-1,-1,-1,-1],"split_conditions":[5.5931233E-2,2.3862459E-1,2.8296122E-1,1.0898517E0,-1.2343783E0,2.1528573E0,6.615041E-1,-1.3531126E0,-4.0146467E-1,-2.1331333E-1,-1.8749765E0,-3.9636204E-1,-7.7535614E-2,9.4463855E-1,0E0,-1.0679078E-1,5.035203E-1,-2.1331333E-1,-1.1012348E-1,8.066957E-2,-8.0402166E-2,1.9454381E-1,-1.152841E-1,1.2092206E0,-1.1201459E0,2.3862459E-1,1.214499E-1,1.1311285E0,8.7569636E-1,9.571703E-2,-9.756042E-3,6.410251E-2,-9.7471155E-2,1.4229427E-2,-8.2334004E-2,6.3500606E-2,-7.355862E-2,5.4171633E-2,1.1691421E-1,8.400907E-2,-9.320935E-2,4.767277E-2,-1.00239635E-1,-1.425346E-1,1.04342E-4],"split_indices":[2,11,0,12,3,9,1,7,9,4,7,7,0,0,4,0,0,4,0,0,0,9,0,11,3,11,0,9,9,0,0,0,0,0,0,0,0,0,0,0,0,0,0,0,0],"split_type":[0,0,0,0,0,0,0,0,0,0,0,0,0,0,0,0,0,0,0,0,0,0,0,0,0,0,0,0,0,0,0,0,0,0,0,0,0,0,0,0,0,0,0,0,0],"sum_hessian":[1.2432285E2,5.9998215E1,6.432464E1,2.8101019E1,3.1897196E1,3.5474625E1,2.8850012E1,1.5786168E1,1.2314851E1,2.4722855E0,2.9424911E1,3.4388615E1,1.0860082E0,1.0367749E1,1.8482264E1,1.3304758E0,1.4455692E1,5.4474216E0,6.8674293E0,1.2254341E0,1.2468516E0,3.044916E0,2.6379995E1,3.4754786E0,3.0913136E1,3.9627092E0,6.4050403E0,1.1682145E1,6.800118E0,9.886752E0,4.56894E0,3.4956648E0,1.9517566E0,1.1253741E0,1.9195417E0,2.4210095E0,1.0544691E0,5.5453815E0,2.5367754E1,1.6936959E0,2.2690132E0,9.390396E0,2.2917488E0,5.7472415E0,1.0528765E0],"tree_param":{"num_deleted":"0","num_feature":"13","num_nodes":"45","size_leaf_vector":"1"}},{"base_weights":[4.699166E-2,4.5858374E-1,-5.634997E-1,7.767879E-1,-1.8926539E-1,1.437299E-1,-9.434584E-1,9.3705475E-1,-2.3801468E-1,6.5914905E-1,-6.5920466E-1,9.194454E-2,-2.4422069E-1,-1.0770456E0,1.5865831E-1,1.0795511E0,4.702904E-1,3.0686328E-1,-1.1715882E-1,-1.128179E-1,1.2657587E-1,1.3041764E-1,-1.22761704E-1,4.803581E-1,-8.5593736E-1,-1.1838342E-1,-6.1219394E-1,-4.972377E-2,8.6815834E-2,2.3881637E-2,1.1685645E-1,6.488047E-2,-2.9206231E-2,8.838162E-2,-3.3202827E-2,7.8687474E-2,-8.340853E-2,-9.452398E-2,1.00509696E-1,-2.2313902E-2,1.0506147E-1,-1.12685435E-1,-1.584765E-2,2.385716E-2,-8.075771E-2],"categories":[],"categories_nodes":[],"categories_segments":[],"categories_sizes":[],"default_left":[0,0,0,0,0,0,0,0,0,0,0,0,0,0,0,0,0,0,0,0,0,0,0,0,0,0,0,0,0,0,0,0,0,0,0,0,0,0,0,0,0,0,0,0,0],"id":11,"left_children":[1,3,5,7,9,11,13,15,17,19,21,-1,23,25,27,29,31,33,-1,35,-1,37,-1,39,41,-1,43,-1,-1,-1,-1,-1,-1,-1,-1,-1,-1,-1,-1,-1,-1,-1,-1,-1,-1],"loss_changes":[2.8480724E1,1.4090568E1,1.241029E1,7.6320972E0,9.637872E0,5.2899356E0,4.5651836E0,2.1224976E0,3.925741E0,4.230086E0,7.051894E0,0E0,5.734661E0,6.030865E-1,2.3388233E0,1.9303894E0,1.6893134E0,2.2173653E0,0E0,3.7444086E0,0E0,7.8473444E0,0E0,2.6970754E0,1.1198978E0,0E0,1.3675218E0,0E0,0E0,0E0,0E0,0E0,0E0,0E0,0E0,0E0,0E0,0E0,0E0,0E0,0E0,0E0,0E0,0E0,0E0],"parents":[2147483647,0,0,1,1,2,2,3,3,4,4,5,5,6,6,7,7,8,8,9,9,10,10,12,12,13,13,14,14,15,15,16,16,17,17,19,19,21,21,23,23,24,24,26,26],"right_children":[2,4,6,8,10,12,14,16,18,20,22,-1,24,26,28,30,32,34,-1,36,-1,38,-1,40,42,-1,44,-1,-1,-1,-1,-1,-1,-1,-1,-1,-1,-1,-1,-1,-1,-1,-1,-1,-1],"split_conditions":[1.0898517E0,2.3862459E-1,-3.163206E-1,6.202642E-1,6.615041E-1,-5.489841E-1,1.9993045E0,5.035203E-1,1.1635272E-1,1.0549182E0,6.2402092E-2,9.194454E-2,-3.4905815E-1,1.0276179E0,-9.301139E-1,-1.2343783E0,1.5513697E0,1.4717048E0,-1.1715882E-1,6.2402092E-2,1.2657587E-1,-4.918679E-1,-1.22761704E-1,5.5931233E-2,8.912549E-1,-1.1838342E-1,6.2402092E-2,-4.972377E-2,8.6815834E-2,2.3881637E-2,1.1685645E-1,6.488047E-2,-2.9206231E-2,8.838162E-2,-3.3202827E-2,7.8687474E-2,-8.340853E-2,-9.452398E-2,1.00509696E-1,-2.2313902E-2,1.0506147E-1,-1.12685435E-1,-1.584765E-2,2.385716E-2,-8.075771E-2],"split_indices":[12,11,9,9,1,3,2,0,4,0,0,0,4,2,0,3,4,9,0,0,0,3,0,2,6,0,0,0,0,0,0,0,0,0,0,0,0,0,0,0,0,0,0,0,0],"split_type":[0,0,0,0,0,0,0,0,0,0,0,0,0,0,0,0,0,0,0,0,0,0,0,0,0,0,0,0,0,0,0,0,0,0,0,0,0,0,0,0,0,0,0,0,0],"sum_hessian":[1.1131714E2,6.663845E1,4.4678684E1,4.455523E1,2.2083223E1,1.5831926E1,2.884676E1,3.854454E1,6.0106907E0,7.728248E0,1.4354976E1,4.8214087E0,1.1010517E1,2.5748537E1,3.098224E0,2.85238E1,1.0020739E1,4.2193685E0,1.791322E0,3.7588198E0,3.9694285E0,6.330869E0,8.024106E0,5.138591E0,5.8719263E0,1.9680676E1,6.06786E0,1.7653869E0,1.3328369E0,3.083448E0,2.5440351E1,8.24015E0,1.7805886E0,2.0157137E0,2.203655E0,1.6320617E0,2.126758E0,2.8030643E0,3.5278049E0,2.573051E0,2.5655398E0,3.7857592E0,2.086167E0,1.0919757E0,4.9758844E0],"tree_param":{"num_deleted":"0","num_feature":"13","num_nodes":"45","size_leaf_vector":"1"}},{"base_weights":[4.306732E-2,-4.6002913E-1,5.153906E-1,1.4141791E-2,-9.614281E-1,6.5253586E-1,-4.8026085E-1,-4.3010873E-1,6.506044E-1,-1.1174505E-1,-4.9932355E-1,9.0540165E-1,2.8195983E-1,8.137323E-2,-8.5517544E-1,4.453965E-1,-9.418657E-1,-6.9021665E-2,8.880613E-1,-1.0154436E-1,4.666828E-1,-3.619746E-2,1.0193167E0,7.4145925E-1,-1.0405533E-1,-1.07809536E-1,-1.6878648E-2,7.11793E-2,-5.2861657E-2,3.5267923E-2,-1.1511532E-1,1.0765268E-1,1.8749114E-2,1.2983088E-1,-6.952091E-2,6.5119885E-2,-4.6071474E-2,1.0601977E-1,3.505457E-3,-4.3470324E-3,1.1451521E-1,6.364327E-2,-1.04894124E-1],"categories":[],"categories_nodes":[],"categories_segments":[],"categories_sizes":[],"default_left":[0,0,0,0,0,0,0,0,0,0,0,0,0,0,0,0,0,0,0,0,0,0,0,0,0,0,0,0,0,0,0,0,0,0,0,0,0,0,0,0,0,0,0],"id":12,"left_children":[1,3,5,7,9,11,13,15,17,-1,19,21,23,-1,25,27,29,-1,31,-1,33,35,37,39,41,-1,-1,-1,-1,-1,-1,-1,-1,-1,-1,-1,-1,-1,-1,-1,-1,-1,-1],"loss_changes":[2.6896982E1,1.305539E1,8.279395E0,8.53007E0,1.365385E0,4.589241E0,4.4018025E0,8.388523E0,4.558573E0,0E0,4.7323723E0,3.2845783E0,4.054101E0,0E0,7.98893E-1,2.254908E0,3.5341606E0,0E0,1.2459517E0,0E0,4.4385834E0,1.5353764E0,1.0510445E0,3.332365E0,9.806691E0,0E0,0E0,0E0,0E0,0E0,0E0,0E0,0E0,0E0,0E0,0E0,0E0,0E0,0E0,0E0,0E0,0E0,0E0],"parents":[2147483647,0,0,1,1,2,2,3,3,4,4,5,5,6,6,7,7,8,8,10,10,11,11,12,12,14,14,15,15,16,16,18,18,20,20,21,21,22,22,23,23,24,24],"right_children":[2,4,6,8,10,12,14,16,18,-1,20,22,24,-1,26,28,30,-1,32,-1,34,36,38,40,42,-1,-1,-1,-1,-1,-1,-1,-1,-1,-1,-1,-1,-1,-1,-1,-1,-1,-1],"split_conditions":[5.5931233E-2,2.3862459E-1,7.905523E-1,9.9543333E-1,1.0549182E0,2.8296122E-1,-6.241209E-1,1.4039283E0,-1.3712322E0,-1.1174505E-1,8.912549E-1,-2.6589605E-1,6.615041E-1,8.137323E-2,7.343432E-1,1.3857569E0,-1.1201459E0,-6.9021665E-2,-3.163206E-1,-1.0154436E-1,2.3873303E0,1.0276179E0,1.278734E0,9.4463855E-1,0E0,-1.07809536E-1,-1.6878648E-2,7.11793E-2,-5.2861657E-2,3.5267923E-2,-1.1511532E-1,1.0765268E-1,1.8749114E-2,1.2983088E-1,-6.952091E-2,6.5119885E-2,-4.6071474E-2,1.0601977E-1,3.505457E-3,-4.3470324E-3,1.1451521E-1,6.364327E-2,-1.04894124E-1],"split_indices":[2,11,9,10,0,0,10,8,0,0,6,7,1,0,7,0,3,0,9,0,5,2,3,0,4,0,0,0,0,0,0,0,0,0,0,0,0,0,0,0,0,0,0],"split_type":[0,0,0,0,0,0,0,0,0,0,0,0,0,0,0,0,0,0,0,0,0,0,0,0,0,0,0,0,0,0,0,0,0,0,0,0,0,0,0,0,0,0,0],"sum_hessian":[1.11193504E2,5.3855354E1,5.7338154E1,2.8178684E1,2.567667E1,5.0699238E1,6.6389136E0,1.678617E1,1.1392515E1,1.8135366E1,7.541303E0,2.9277946E1,2.1421293E1,1.228473E0,5.410441E0,6.240204E0,1.0545965E1,1.4271704E0,9.965345E0,4.881844E0,2.659459E0,3.2334144E0,2.604453E1,9.359389E0,1.2061904E1,3.6532805E0,1.7571603E0,5.111425E0,1.128779E0,1.372325E0,9.17364E0,7.429924E0,2.535421E0,1.4815955E0,1.1778637E0,1.0306184E0,2.202796E0,2.4931843E1,1.1126881E0,3.4817958E0,5.877593E0,6.9453883E0,5.1165156E0],"tree_param":{"num_deleted":"0","num_feature":"13","num_nodes":"43","size_leaf_vector":"1"}},{"base_weights":[-2.689046E-2,-5.1551175E-1,4.192413E-1,-7.7876195E-2,-9.622072E-1,6.681127E-1,-1.4659499E-1,-5.8335966E-1,4.016927E-1,-7.7343285E-3,-1.0339104E0,2.3445508E-1,1.0744113E-1,-4.6612185E-1,4.5448023E-1,4.4303995E-1,-8.3384347E-1,-7.973992E-2,6.462465E-1,-3.5282442E-1,-1.0946353E-1,9.536399E-1,-2.6652578E-1,-6.636319E-1,5.7144057E-2,-2.1465477E-1,8.1290394E-1,-1.2653261E-2,7.718332E-2,-1.0852207E-1,3.0835142E-2,-5.5840224E-2,8.0474906E-2,-6.689656E-2,1.7386964E-2,1.072783E-1,1.2233404E-2,2.0720264E-2,-8.889104E-2,-1.8344535E-2,-1.05878964E-1,-2.9786065E-2,-2.439165E-3,2.3084544E-2,9.958954E-2],"categories":[],"categories_nodes":[],"categories_segments":[],"categories_sizes":[],"default_left":[0,0,0,0,0,0,0,0,0,0,0,0,0,0,0,0,0,0,0,0,0,0,0,0,0,0,0,0,0,0,0,0,0,0,0,0,0,0,0,0,0,0,0,0,0],"id":13,"left_children":[1,3,5,7,9,11,13,15,17,-1,19,21,-1,23,25,27,29,-1,31,33,-1,35,37,39,-1,41,43,-1,-1,-1,-1,-1,-1,-1,-1,-1,-1,-1,-1,-1,-1,-1,-1,-1,-1],"loss_changes":[2.3074677E1,9.796454E0,7.8944874E0,6.6812286E0,1.4999523E0,6.5549355E0,3.6175675E0,3.803012E0,4.6908894E0,0E0,5.631237E-1,7.4479523E0,0E0,2.8530438E0,1.7720383E0,7.10584E-1,3.516612E0,0E0,2.813119E0,6.748896E-1,0E0,7.0234346E-1,3.8844323E0,1.8178349E0,0E0,4.2041168E-2,2.5435758E-1,0E0,0E0,0E0,0E0,0E0,0E0,0E0,0E0,0E0,0E0,0E0,0E0,0E0,0E0,0E0,0E0,0E0,0E0],"parents":[2147483647,0,0,1,1,2,2,3,3,4,4,5,5,6,6,7,7,8,8,10,10,11,11,13,13,14,14,15,15,16,16,18,18,19,19,21,21,22,22,23,23,25,25,26,26],"right_children":[2,4,6,8,10,12,14,16,18,-1,20,22,-1,24,26,28,30,-1,32,34,-1,36,38,40,-1,42,44,-1,-1,-1,-1,-1,-1,-1,-1,-1,-1,-1,-1,-1,-1,-1,-1,-1,-1],"split_conditions":[5.5931233E-2,2.3862459E-1,1.0898517E0,-9.1941394E-2,-1.2343783E0,5.168999E-1,9.9543333E-1,-1.0059136E0,-1.3712322E0,-7.7343285E-3,-1.8749765E0,6.615041E-1,1.0744113E-1,1.2092206E0,8.912549E-1,-7.095548E-1,9.9543333E-1,-7.973992E-2,-7.950769E-1,6.1379987E-1,-1.0946353E-1,9.502139E-1,-1.9392121E-1,8.912549E-1,5.7144057E-2,1.0276179E0,1.0276179E0,-1.2653261E-2,7.718332E-2,-1.0852207E-1,3.0835142E-2,-5.5840224E-2,8.0474906E-2,-6.689656E-2,1.7386964E-2,1.072783E-1,1.2233404E-2,2.0720264E-2,-8.889104E-2,-1.8344535E-2,-1.05878964E-1,-2.9786065E-2,-2.439165E-3,2.3084544E-2,9.958954E-2],"split_indices":[2,11,12,7,3,7,10,3,0,0,7,1,0,11,6,0,10,0,4,0,0,4,4,6,0,2,2,0,0,0,0,0,0,0,0,0,0,0,0,0,0,0,0,0,0],"split_type":[0,0,0,0,0,0,0,0,0,0,0,0,0,0,0,0,0,0,0,0,0,0,0,0,0,0,0,0,0,0,0,0,0,0,0,0,0,0,0,0,0,0,0,0,0],"sum_hessian":[1.0386082E2,4.9495674E1,5.4365143E1,2.5594563E1,2.3901112E1,3.763251E1,1.6732634E1,1.2355247E1,1.3239315E1,1.9474154E0,2.1953695E1,1.8966211E1,1.8666298E1,1.1071586E1,5.6610484E0,2.2729034E0,1.0082343E1,1.8597913E0,1.1379524E1,2.354622E0,1.9599073E1,7.4162464E0,1.1549965E1,9.603803E0,1.4677832E0,2.1145487E0,3.5464997E0,1.0570036E0,1.2158997E0,8.30454E0,1.7778032E0,1.029808E0,1.0349716E1,1.3026198E0,1.0520022E0,6.23252E0,1.1837265E0,6.936969E0,4.6129956E0,4.9964566E0,4.607346E0,1.0777203E0,1.0368284E0,1.3892113E0,2.1572886E0],"tree_param":{"num_deleted":"0","num_feature":"13","num_nodes":"45","size_leaf_vector":"1"}},{"base_weights":[1.4567528E-2,3.8137108E-1,-5.0617E-1,6.3419795E-1,-2.5438568E-1,-9.159148E-1,1.345834E-1,1.0278914E0,3.991845E-1,4.4579047E-1,-6.7007625E-1,-3.6610627E-1,-1.0252788E0,-6.905908E-1,6.01096E-1,1.1225348E-1,3.100632E-1,-8.885527E-2,8.596735E-1,-8.6913824E-2,9.916248E-2,4.9179786E-1,-1.0384374E0,-6.575958E-1,4.4204917E-2,-1.1009027E0,-2.6386315E-1,3.0799476E-2,-9.6875094E-2,9.444182E-1,2.605759E-2,-2.4659047E-2,7.130282E-2,4.5536E-2,-5.7571203E-2,3.292966E-2,1.04630865E-1,6.6880076E-3,7.237785E-2,-1.22037865E-1,-3.1858828E-2,-7.845012E-3,-1.0356989E-1,-1.18166104E-1,-5.0173014E-2,2.4408136E-2,-6.28462E-2,1.1497319E-1,-1.574361E-2,-6.708168E-2,8.189269E-2],"categories":[],"categories_nodes":[],"categories_segments":[],"categories_sizes":[],"default_left":[0,0,0,0,0,0,0,0,0,0,0,0,0,0,0,0,0,0,0,0,0,0,0,0,0,0,0,0,0,0,0,0,0,0,0,0,0,0,0,0,0,0,0,0,0,0,0,0,0,0,0],"id":14,"left_children":[1,3,5,7,9,11,13,15,17,19,21,23,25,27,29,-1,31,33,35,-1,-1,37,39,41,-1,43,45,-1,-1,47,49,-1,-1,-1,-1,-1,-1,-1,-1,-1,-1,-1,-1,-1,-1,-1,-1,-1,-1,-1,-1],"loss_changes":[1.9364595E1,9.718632E0,1.1126748E1,3.5522556E0,5.4305077E0,1.1694584E0,7.043676E0,6.964359E-1,6.470951E0,6.007107E0,5.4166784E0,1.6612142E0,9.114475E-1,2.1550465E0,2.2526317E0,0E0,8.874681E-1,4.1622577E0,1.1138964E0,0E0,0E0,2.9048377E-1,7.931919E-1,9.430642E-1,0E0,3.1066132E-1,7.4622834E-1,0E0,0E0,1.8085289E0,3.5001788E0,0E0,0E0,0E0,0E0,0E0,0E0,0E0,0E0,0E0,0E0,0E0,0E0,0E0,0E0,0E0,0E0,0E0,0E0,0E0,0E0],"parents":[2147483647,0,0,1,1,2,2,3,3,4,4,5,5,6,6,7,7,8,8,9,9,10,10,11,11,12,12,13,13,14,14,16,16,17,17,18,18,21,21,22,22,23,23,25,25,26,26,29,29,30,30],"right_children":[2,4,6,8,10,12,14,16,18,20,22,24,26,28,30,-1,32,34,36,-1,-1,38,40,42,-1,44,46,-1,-1,48,50,-1,-1,-1,-1,-1,-1,-1,-1,-1,-1,-1,-1,-1,-1,-1,-1,-1,-1,-1,-1],"split_conditions":[2.3862459E-1,1.4039283E0,9.9543333E-1,6.615041E-1,-3.163206E-1,-4.0146467E-1,5.5931233E-2,1.3380563E0,5.168999E-1,-2.2240739E-1,-1.1201459E0,1.7452908E-1,1.0471745E0,-1.2343783E0,1.2092206E0,1.1225348E-1,1.0276179E0,-1.9392121E-1,5.5931233E-2,-8.6913824E-2,9.916248E-2,-2.6843658E-1,5.5931233E-2,3.852459E-2,4.4204917E-2,2.1798167E0,8.7569636E-1,3.0799476E-2,-9.6875094E-2,1.1645015E0,3.6487493E-1,-2.4659047E-2,7.130282E-2,4.5536E-2,-5.7571203E-2,3.292966E-2,1.04630865E-1,6.6880076E-3,7.237785E-2,-1.22037865E-1,-3.1858828E-2,-7.845012E-3,-1.0356989E-1,-1.18166104E-1,-5.0173014E-2,2.4408136E-2,-6.28462E-2,1.1497319E-1,-1.574361E-2,-6.708168E-2,8.189269E-2],"split_indices":[11,8,10,1,9,9,2,4,7,7,3,4,4,3,11,0,2,4,2,0,0,0,2,7,0,11,9,0,0,3,3,0,0,0,0,0,0,0,0,0,0,0,0,0,0,0,0,0,0,0,0],"split_type":[0,0,0,0,0,0,0,0,0,0,0,0,0,0,0,0,0,0,0,0,0,0,0,0,0,0,0,0,0,0,0,0,0,0,0,0,0,0,0,0,0,0,0,0,0,0,0,0,0,0,0],"sum_hessian":[9.937025E1,5.845947E1,4.0910774E1,4.182787E1,1.6631598E1,2.4691671E1,1.6219105E1,1.4374319E1,2.7453552E1,6.1687465E0,1.0462852E1,4.817936E0,1.9873735E1,5.684302E0,1.0534802E1,1.2201764E1,2.172555E0,1.3719871E1,1.3733682E1,1.6357859E0,4.532961E0,2.437972E0,8.024879E0,3.677733E0,1.1402028E0,1.7672626E1,2.2011094E0,1.2150515E0,4.4692507E0,6.1942286E0,4.340574E0,1.0752587E0,1.0972964E0,6.508865E0,7.2110057E0,4.294376E0,9.439305E0,1.3159158E0,1.1220564E0,5.8507757E0,2.174104E0,1.9296086E0,1.7481245E0,1.4716883E1,2.9557433E0,1.0578722E0,1.1432374E0,5.184689E0,1.0095394E0,2.3920624E0,1.9485114E0],"tree_param":{"num_deleted":"0","num_feature":"13","num_nodes":"51","size_leaf_vector":"1"}},{"base_weights":[5.734062E-3,-4.6341696E-1,3.9120954E-1,5.2462164E-2,-8.401596E-1,9.4069403E-1,1.3983434E-1,4.1814303E-1,-5.5467397E-1,-4.4136077E-1,-1.0808214E-1,1.0223619E0,7.0652226E-3,8.0290306E-1,-4.920387E-2,-7.154191E-2,5.8412874E-1,2.1497394E-1,-9.8879114E-2,-6.930468E-1,7.349488E-2,2.128761E-2,1.0672561E0,1.0292776E-1,-4.1511107E-2,-8.1992537E-1,1.66147E-1,8.484121E-2,-1.7379608E-3,-6.751888E-2,1.07210815E-1,1.8310314E-2,-1.004792E-1,1.1177801E-1,3.0789686E-2,-1.3106959E-1,3.7778363E-2,8.543676E-2,-2.6893983E-2],"categories":[],"categories_nodes":[],"categories_segments":[],"categories_sizes":[],"default_left":[0,0,0,0,0,0,0,0,0,0,0,0,0,0,0,0,0,0,0,0,0,0,0,0,0,0,0,0,0,0,0,0,0,0,0,0,0,0,0],"id":15,"left_children":[1,3,5,7,9,11,13,15,17,19,-1,21,-1,23,25,-1,27,29,-1,31,-1,-1,33,-1,-1,35,37,-1,-1,-1,-1,-1,-1,-1,-1,-1,-1,-1,-1],"loss_changes":[1.7806335E1,8.676504E0,7.3331947E0,4.6029377E0,1.9922752E0,1.120656E0,4.8344975E0,2.8370519E0,2.8288295E0,3.876497E0,0E0,3.2786655E-1,0E0,2.7831826E0,5.2333164E0,0E0,1.8850975E0,3.5052037E0,0E0,2.8834586E0,0E0,0E0,2.0147133E-1,0E0,0E0,4.536464E0,7.6661334E0,0E0,0E0,0E0,0E0,0E0,0E0,0E0,0E0,0E0,0E0,0E0,0E0],"parents":[2147483647,0,0,1,1,2,2,3,3,4,4,5,5,6,6,7,7,8,8,9,9,11,11,13,13,14,14,16,16,17,17,19,19,22,22,25,25,26,26],"right_children":[2,4,6,8,10,12,14,16,18,20,-1,22,-1,24,26,-1,28,30,-1,32,-1,-1,34,-1,-1,36,38,-1,-1,-1,-1,-1,-1,-1,-1,-1,-1,-1,-1],"split_conditions":[5.5931233E-2,-3.163206E-1,6.615041E-1,2.3862459E-1,1.0898517E0,1.2092206E0,-1.0403935E0,-1.2609526E0,-4.8452735E-2,9.9543333E-1,-1.0808214E-1,-1.4835786E0,7.0652226E-3,8.7569636E-1,-3.7871614E-1,-7.154191E-2,5.035203E-1,8.912549E-1,-9.8879114E-2,-1.0059136E0,7.349488E-2,2.128761E-2,1.0822525E0,1.0292776E-1,-4.1511107E-2,-3.878424E-2,2.8296122E-1,8.484121E-2,-1.7379608E-3,-6.751888E-2,1.07210815E-1,1.8310314E-2,-1.004792E-1,1.1177801E-1,3.0789686E-2,-1.3106959E-1,3.7778363E-2,8.543676E-2,-2.6893983E-2],"split_indices":[2,9,1,11,12,11,0,0,7,10,0,7,0,9,0,0,0,6,0,3,0,0,7,0,0,4,0,0,0,0,0,0,0,0,0,0,0,0,0],"split_type":[0,0,0,0,0,0,0,0,0,0,0,0,0,0,0,0,0,0,0,0,0,0,0,0,0,0,0,0,0,0,0,0,0,0,0,0,0,0,0],"sum_hessian":[9.6458725E1,4.341608E1,5.304265E1,1.868761E1,2.472847E1,1.5788393E1,3.7254253E1,1.1857232E1,6.8303785E0,1.037315E1,1.4355319E1,1.4273516E1,1.5148766E0,7.5443735E0,2.970988E1,1.0916858E0,1.0765546E1,2.6453066E0,4.185072E0,8.883289E0,1.4898605E0,1.0517213E0,1.3221794E1,6.492636E0,1.0517374E0,5.8753033E0,2.3834578E1,7.1941814E0,3.5713646E0,1.4017813E0,1.2435251E0,2.43958E0,6.44371E0,1.1954404E1,1.2673906E0,4.1006813E0,1.7746218E0,8.858509E0,1.4976068E1],"tree_param":{"num_deleted":"0","num_feature":"13","num_nodes":"39","size_leaf_vector":"1"}},{"base_weights":[1.1718349E-2,3.907167E-1,-4.9103495E-1,5.329355E-2,8.4602535E-1,-8.675375E-1,-2.578673E-2,5.87789E-1,-2.1311256E-1,9.790341E-1,1.6362041E-1,-1.1952136E-1,-9.610051E-1,2.3842004E-1,-9.857382E-2,1.0550964E-1,-3.028983E-1,2.5824097E-1,-6.375681E-1,2.1048903E-1,1.0902418E0,-5.8144685E-2,6.1520636E-2,6.4483516E-2,-8.308856E-2,-2.8870973E-1,-1.0266042E-1,-2.5731945E-1,6.946091E-1,-9.55376E-2,5.258413E-2,6.4906605E-2,-2.9389579E-2,-1.16855815E-1,-2.498187E-2,6.8577565E-2,-4.586254E-2,2.9170245E-2,1.13107204E-1,-5.9696812E-2,1.7478501E-2,-5.0798018E-2,6.540572E-2,4.5279353E-3,9.33612E-2],"categories":[],"categories_nodes":[],"categories_segments":[],"categories_sizes":[],"default_left":[0,0,0,0,0,0,0,0,0,0,0,0,0,0,0,0,0,0,0,0,0,0,0,0,0,0,0,0,0,0,0,0,0,0,0,0,0,0,0,0,0,0,0,0,0],"id":16,"left_children":[1,3,5,7,9,11,13,15,17,19,21,23,25,27,-1,-1,29,31,33,35,37,-1,-1,-1,-1,39,-1,41,43,-1,-1,-1,-1,-1,-1,-1,-1,-1,-1,-1,-1,-1,-1,-1,-1],"loss_changes":[1.7539932E1,8.015794E0,6.9101744E0,4.5683403E0,1.8607969E0,1.4123707E0,4.986119E0,4.750387E0,4.4776707E0,1.3459778E0,1.983709E0,2.4760268E0,5.537052E-1,3.6829283E0,0E0,0E0,2.9033096E0,2.5485284E0,2.1028824E0,1.4496504E0,1.8730164E-1,0E0,0E0,0E0,0E0,5.479536E-1,0E0,2.1952875E0,1.2519741E0,0E0,0E0,0E0,0E0,0E0,0E0,0E0,0E0,0E0,0E0,0E0,0E0,0E0,0E0,0E0,0E0],"parents":[2147483647,0,0,1,1,2,2,3,3,4,4,5,5,6,6,7,7,8,8,9,9,10,10,11,11,12,12,13,13,16,16,17,17,18,18,19,19,20,20,25,25,27,27,28,28],"right_children":[2,4,6,8,10,12,14,16,18,20,22,24,26,28,-1,-1,30,32,34,36,38,-1,-1,-1,-1,40,-1,42,44,-1,-1,-1,-1,-1,-1,-1,-1,-1,-1,-1,-1,-1,-1,-1,-1],"split_conditions":[2.3862459E-1,4.7341123E-1,5.5931233E-2,6.615041E-1,5.235872E-1,-1.2343783E0,7.905523E-1,1.4039283E0,-1.9392121E-1,-1.4815117E0,5.5931233E-2,-4.8452735E-2,-1.8749765E0,8.912549E-1,-9.857382E-2,1.0550964E-1,-9.1941394E-2,1.0898517E0,-7.0078266E-1,-5.817636E-1,-1.1201459E0,-5.8144685E-2,6.1520636E-2,6.4483516E-2,-8.308856E-2,-2.0054426E0,-1.0266042E-1,1.2754773E0,9.9543333E-1,-9.55376E-2,5.258413E-2,6.4906605E-2,-2.9389579E-2,-1.16855815E-1,-2.498187E-2,6.8577565E-2,-4.586254E-2,2.9170245E-2,1.13107204E-1,-5.9696812E-2,1.7478501E-2,-5.0798018E-2,6.540572E-2,4.5279353E-3,9.33612E-2],"split_indices":[11,7,2,1,4,3,9,8,4,0,2,7,7,6,0,0,7,12,7,4,3,0,0,0,0,7,0,0,10,0,0,0,0,0,0,0,0,0,0,0,0,0,0,0,0],"split_type":[0,0,0,0,0,0,0,0,0,0,0,0,0,0,0,0,0,0,0,0,0,0,0,0,0,0,0,0,0,0,0,0,0,0,0,0,0,0,0,0,0,0,0,0,0],"sum_hessian":[9.004562E1,5.1468884E1,3.8576744E1,3.0202936E1,2.1265945E1,2.0844023E1,1.7732721E1,9.64521E0,2.0557726E1,1.7433306E1,3.8326397E0,2.5683556E0,1.8275667E1,1.4494926E1,3.2377954E0,6.2050734E0,3.4401371E0,9.926285E0,1.0631442E1,2.5693738E0,1.4863932E1,1.3378191E0,2.4948206E0,1.2831461E0,1.2852094E0,2.104875E0,1.6170792E1,7.1552606E0,7.339666E0,1.8392583E0,1.6008787E0,5.70939E0,4.216894E0,3.6370778E0,6.994364E0,1.4877161E0,1.0816578E0,1.1192106E0,1.3744721E1,1.0911846E0,1.0136904E0,5.9589596E0,1.1963009E0,2.29473E0,5.0449357E0],"tree_param":{"num_deleted":"0","num_feature":"13","num_nodes":"45","size_leaf_vector":"1"}},{"base_weights":[9.533856E-3,-3.5708642E-1,4.4748488E-1,2.3853219E-1,-6.442447E-1,-7.9023E-3,6.8257976E-1,6.1199766E-1,-4.210258E-1,-2.7860755E-1,-9.5402646E-1,4.2191276E-1,-6.352156E-1,2.0933634E-1,8.5381526E-1,9.1158944E-1,-9.342341E-3,-9.2407174E-2,5.6031603E-2,8.441959E-2,-7.824778E-1,-1.0119135E0,-2.8209252E-2,-1.0625729E-1,8.391187E-2,1.984491E-2,-9.16213E-2,6.6385376E-1,-1.3218234E-1,1.0351561E0,3.1756428E-1,1.033528E-1,1.6639043E-2,-5.509866E-2,5.307238E-2,-3.935352E-2,6.6932306E-2,-1.0012366E-1,6.804043E-3,-1.1021488E-1,-3.987293E-2,-6.3284345E-2,5.3223033E-2,2.925446E-3,1.04352154E-1,1.0762242E-1,3.486319E-2,8.841951E-2,-3.1198565E-2],"categories":[],"categories_nodes":[],"categories_segments":[],"categories_sizes":[],"default_left":[0,0,0,0,0,0,0,0,0,0,0,0,0,0,0,0,0,0,0,0,0,0,0,0,0,0,0,0,0,0,0,0,0,0,0,0,0,0,0,0,0,0,0,0,0,0,0,0,0],"id":17,"left_children":[1,3,5,7,9,11,13,15,17,19,21,23,25,27,29,31,33,-1,-1,35,37,39,-1,41,-1,-1,-1,43,-1,45,47,-1,-1,-1,-1,-1,-1,-1,-1,-1,-1,-1,-1,-1,-1,-1,-1,-1,-1],"loss_changes":[1.4354544E1,8.479494E0,4.365733E0,4.337851E0,3.4849596E0,4.2735295E0,1.9989157E0,2.0530782E0,3.7665057E0,3.1025648E0,3.9576817E-1,2.164131E0,1.6902657E0,6.7684507E0,1.5585718E0,5.02326E-1,1.6271905E0,0E0,0E0,3.2130945E0,1.3796558E0,4.31345E-1,0E0,2.0324357E0,0E0,0E0,0E0,1.7025008E0,0E0,2.1227837E-2,2.5399914E0,0E0,0E0,0E0,0E0,0E0,0E0,0E0,0E0,0E0,0E0,0E0,0E0,0E0,0E0,0E0,0E0,0E0,0E0],"parents":[2147483647,0,0,1,1,2,2,3,3,4,4,5,5,6,6,7,7,8,8,9,9,10,10,11,11,12,12,13,13,14,14,15,15,16,16,19,19,20,20,21,21,23,23,27,27,29,29,30,30],"right_children":[2,4,6,8,10,12,14,16,18,20,22,24,26,28,30,32,34,-1,-1,36,38,40,-1,42,-1,-1,-1,44,-1,46,48,-1,-1,-1,-1,-1,-1,-1,-1,-1,-1,-1,-1,-1,-1,-1,-1,-1,-1],"split_conditions":[9.9543333E-1,-3.163206E-1,5.5931233E-2,4.791073E-1,1.0898517E0,2.3862459E-1,1.6899058E-1,2.3862459E-1,6.1379987E-1,2.3862459E-1,1.9993045E0,8.912549E-1,-1.1201459E0,1.2550192E-1,2.8296122E-1,2.5209758E-1,8.912549E-1,-9.2407174E-2,5.6031603E-2,1.0276179E0,9.502139E-1,2.1798167E0,-2.8209252E-2,2.2177799E-2,8.391187E-2,1.984491E-2,-9.16213E-2,6.1379987E-1,-1.3218234E-1,1.3866731E0,6.615041E-1,1.033528E-1,1.6639043E-2,-5.509866E-2,5.307238E-2,-3.935352E-2,6.6932306E-2,-1.0012366E-1,6.804043E-3,-1.1021488E-1,-3.987293E-2,-6.3284345E-2,5.3223033E-2,2.925446E-3,1.04352154E-1,1.0762242E-1,3.486319E-2,8.841951E-2,-3.1198565E-2],"split_indices":[10,9,2,3,12,11,7,11,0,11,2,6,3,7,0,4,6,0,0,2,4,11,0,3,0,0,0,0,0,7,1,0,0,0,0,0,0,0,0,0,0,0,0,0,0,0,0,0,0],"split_type":[0,0,0,0,0,0,0,0,0,0,0,0,0,0,0,0,0,0,0,0,0,0,0,0,0,0,0,0,0,0,0,0,0,0,0,0,0,0,0,0,0,0,0,0,0,0,0,0,0],"sum_hessian":[8.740684E1,4.767853E1,3.9728306E1,1.5564421E1,3.211411E1,1.3855703E1,2.5872602E1,9.983508E0,5.5809126E0,1.5600327E1,1.6513784E1,8.41645E0,5.439254E0,7.4647584E0,1.8407845E1,6.4205666E0,3.5629418E0,3.7281723E0,1.8527404E0,9.551293E0,6.049033E0,1.4738125E1,1.7756587E0,4.043197E0,4.373252E0,1.4452492E0,3.9940045E0,6.1928716E0,1.2718868E0,1.3060794E1,5.3470507E0,5.185188E0,1.2353787E0,1.7687763E0,1.7941654E0,5.43624E0,4.115053E0,4.670534E0,1.3784988E0,1.215238E1,2.585745E0,2.2206109E0,1.8225862E0,2.7213306E0,3.471541E0,1.178799E1,1.2728041E0,2.601271E0,2.7457798E0],"tree_param":{"num_deleted":"0","num_feature":"13","num_nodes":"49","size_leaf_vector":"1"}},{"base_weights":[3.515901E-2,-4.176139E-1,4.1230097E-1,2.501783E-2,-7.609738E-1,5.8000004E-1,-4.952141E-1,3.0936903E-1,-4.8614097E-1,-7.775692E-2,-9.0825456E-1,9.6571386E-1,3.1476632E-1,8.458692E-2,-9.468703E-1,-8.787999E-2,5.1882684E-1,2.4637094E-1,-9.400763E-2,5.4659104E-1,-7.716952E-2,-1.0326637E0,-2.4502423E-1,2.646282E-3,1.0535189E-1,7.1718526E-1,-1.0369863E-2,-3.7050825E-2,-1.05498984E-1,4.7553726E-3,8.998497E-2,-6.2156208E-2,1.0083188E-1,-3.179794E-4,8.000003E-2,-1.1101674E-1,-5.3111017E-2,6.316885E-2,-7.7284686E-2,-1.9389391E-2,8.6356305E-2,-7.1997695E-2,4.6927273E-2],"categories":[],"categories_nodes":[],"categories_segments":[],"categories_sizes":[],"default_left":[0,0,0,0,0,0,0,0,0,0,0,0,0,0,0,0,0,0,0,0,0,0,0,0,0,0,0,0,0,0,0,0,0,0,0,0,0,0,0,0,0,0,0],"id":18,"left_children":[1,3,5,7,9,11,13,15,17,19,21,23,25,-1,27,-1,29,31,-1,33,-1,35,37,-1,-1,39,41,-1,-1,-1,-1,-1,-1,-1,-1,-1,-1,-1,-1,-1,-1,-1,-1],"loss_changes":[1.5112999E1,6.137541E0,7.6285534E0,2.847324E0,2.2138796E0,3.908412E0,5.6847754E0,3.5752068E0,2.5662642E0,2.6400096E0,1.2803211E0,1.3158655E0,3.393798E0,0E0,1.4388561E-2,0E0,1.9834366E0,2.9272513E0,0E0,4.5956212E-1,0E0,6.5631866E-3,2.453199E0,0E0,0E0,1.7118225E0,5.545714E0,0E0,0E0,0E0,0E0,0E0,0E0,0E0,0E0,0E0,0E0,0E0,0E0,0E0,0E0,0E0,0E0],"parents":[2147483647,0,0,1,1,2,2,3,3,4,4,5,5,6,6,7,7,8,8,9,9,10,10,11,11,12,12,14,14,16,16,17,17,19,19,21,21,22,22,25,25,26,26],"right_children":[2,4,6,8,10,12,14,16,18,20,22,24,26,-1,28,-1,30,32,-1,34,-1,36,38,-1,-1,40,42,-1,-1,-1,-1,-1,-1,-1,-1,-1,-1,-1,-1,-1,-1,-1,-1],"split_conditions":[5.5931233E-2,-3.163206E-1,7.905523E-1,2.3862459E-1,-8.3456504E-1,-3.4905815E-1,-6.241209E-1,-1.4815117E0,-4.8452735E-2,2.3862459E-1,9.9543333E-1,-1.7258987E0,1.7268164E-1,8.458692E-2,1.2162726E0,-8.787999E-2,9.9543333E-1,8.912549E-1,-9.400763E-2,-1.0052034E0,-7.716952E-2,1.0277823E0,1.0898517E0,2.646282E-3,1.0535189E-1,-1.1201459E0,6.1379987E-1,-3.7050825E-2,-1.05498984E-1,4.7553726E-3,8.998497E-2,-6.2156208E-2,1.0083188E-1,-3.179794E-4,8.000003E-2,-1.1101674E-1,-5.3111017E-2,6.316885E-2,-7.7284686E-2,-1.9389391E-2,8.6356305E-2,-7.1997695E-2,4.6927273E-2],"split_indices":[2,9,9,11,3,4,10,0,7,11,10,4,0,0,9,0,10,6,0,7,0,4,12,0,0,3,0,0,0,0,0,0,0,0,0,0,0,0,0,0,0,0,0],"split_type":[0,0,0,0,0,0,0,0,0,0,0,0,0,0,0,0,0,0,0,0,0,0,0,0,0,0,0,0,0,0,0,0,0,0,0,0,0,0,0,0,0,0,0],"sum_hessian":[8.649617E1,3.925808E1,4.723809E1,1.7554886E1,2.1703194E1,4.017506E1,7.0630293E0,1.1533637E1,6.021248E0,4.11982E0,1.7583374E1,1.5293555E1,2.4881506E1,1.5595396E0,5.5034895E0,1.2495954E0,1.0284041E1,2.478679E0,3.5425692E0,2.2804213E0,1.8393986E0,1.4337008E1,3.2463658E0,1.4187335E0,1.3874822E1,1.0580406E1,1.43011E1,1.5685767E0,3.934913E0,5.1003776E0,5.183664E0,1.2448822E0,1.2337966E0,1.031038E0,1.2493833E0,1.1367034E1,2.9699745E0,1.1460297E0,2.100336E0,1.4196512E0,9.160755E0,5.565763E0,8.735336E0],"tree_param":{"num_deleted":"0","num_feature":"13","num_nodes":"43","size_leaf_vector":"1"}},{"base_weights":[-7.858625E-2,-5.3583413E-1,3.0472803E-1,-1.1884364E-1,-8.496357E-1,9.041875E-1,6.4194545E-2,-3.6243787E-1,5.2298445E-1,-9.544415E-2,-9.864229E-1,9.588082E-1,1.8331012E-2,7.736598E-1,-1.10489205E-1,-5.3006385E-2,-8.274663E-1,8.73944E-2,-2.5993878E-2,4.1956764E-2,-6.869268E-2,-1.06689446E-1,-4.3804586E-1,1.00857556E-1,2.8339317E-2,9.467571E-2,-7.880169E-3,-7.9210395E-1,9.6833125E-2,-9.778424E-2,2.590002E-2,-2.0969115E-2,-9.254452E-2,6.8706134E-3,-7.035608E-2,-1.09032236E-1,1.226172E-2,6.9311045E-2,-2.1647906E-2],"categories":[],"categories_nodes":[],"categories_segments":[],"categories_sizes":[],"default_left":[0,0,0,0,0,0,0,0,0,0,0,0,0,0,0,0,0,0,0,0,0,0,0,0,0,0,0,0,0,0,0,0,0,0,0,0,0,0,0],"id":19,"left_children":[1,3,5,7,9,11,13,15,17,19,21,23,-1,25,27,29,31,-1,-1,-1,-1,-1,33,-1,-1,-1,-1,35,37,-1,-1,-1,-1,-1,-1,-1,-1,-1,-1],"loss_changes":[1.4433775E1,4.804923E0,6.420174E0,2.888326E0,2.0960464E0,3.2780075E-1,4.1925197E0,1.8416333E0,1.6445379E0,1.6183354E0,3.2095718E-1,1.0583305E-1,0E0,1.0591791E0,3.9581757E0,2.8319025E0,1.18690014E-1,0E0,0E0,0E0,0E0,0E0,5.841916E-1,0E0,0E0,0E0,0E0,1.9108777E0,4.251155E0,0E0,0E0,0E0,0E0,0E0,0E0,0E0,0E0,0E0,0E0],"parents":[2147483647,0,0,1,1,2,2,3,3,4,4,5,5,6,6,7,7,8,8,9,9,10,10,11,11,13,13,14,14,15,15,16,16,22,22,27,27,28,28],"right_children":[2,4,6,8,10,12,14,16,18,20,22,24,-1,26,28,30,32,-1,-1,-1,-1,-1,34,-1,-1,-1,-1,36,38,-1,-1,-1,-1,-1,-1,-1,-1,-1,-1],"split_conditions":[5.5931233E-2,-3.163206E-1,6.615041E-1,-6.568969E-1,-8.3456504E-1,1.2092206E0,-1.0403935E0,2.3862459E-1,3.8784242E-1,2.3862459E-1,9.9543333E-1,1.0822525E0,1.8331012E-2,1.4039283E0,-3.7871614E-1,-1.3712322E0,-4.8452735E-2,8.73944E-2,-2.5993878E-2,4.1956764E-2,-6.869268E-2,-1.06689446E-1,1.4039283E0,1.00857556E-1,2.8339317E-2,9.467571E-2,-7.880169E-3,-3.878424E-2,2.8296122E-1,-9.778424E-2,2.590002E-2,-2.0969115E-2,-9.254452E-2,6.8706134E-3,-7.035608E-2,-1.09032236E-1,1.226172E-2,6.9311045E-2,-2.1647906E-2],"split_indices":[2,9,1,9,3,11,0,11,4,11,10,7,0,8,0,0,7,0,0,0,0,0,8,0,0,0,0,4,0,0,0,0,0,0,0,0,0,0,0],"split_type":[0,0,0,0,0,0,0,0,0,0,0,0,0,0,0,0,0,0,0,0,0,0,0,0,0,0,0,0,0,0,0,0,0,0,0,0,0,0,0],"sum_hessian":[8.04202E1,3.6491875E1,4.392832E1,1.6261606E1,2.023027E1,1.1788883E1,3.213944E1,1.2103315E1,4.158291E0,3.3664925E0,1.6863777E1,1.0651746E1,1.137138E0,5.6724167E0,2.6467024E1,7.936396E0,4.166919E0,2.7909424E0,1.3673482E0,1.954946E0,1.4115466E0,1.388123E1,2.982548E0,9.4613285E0,1.1904173E0,4.6230617E0,1.0493553E0,5.514927E0,2.0952097E1,1.4637043E0,6.4726915E0,1.0002598E0,3.1666596E0,1.2802825E0,1.7022654E0,4.0142307E0,1.5006963E0,6.7994947E0,1.4152601E1],"tree_param":{"num_deleted":"0","num_feature":"13","num_nodes":"39","size_leaf_vector":"1"}},{"base_weights":[-7.88575E-2,2.6958698E-1,-5.706668E-1,4.624512E-1,-3.2062083E-1,4.334339E-1,-6.6394955E-1,7.8915024E-1,1.317824E-1,-6.4456856E-1,5.9928596E-1,7.5082205E-2,-1.0385319E-2,-7.614408E-1,7.760007E-2,1.1462406E-1,9.794065E-2,5.9721494E-1,-3.2331896E-1,2.46014E-1,-9.894296E-1,7.370611E-2,1.3186087E-2,-3.1962103E-1,-9.4842535E-1,-5.5960674E-2,5.030024E-1,4.178705E-2,-5.3502202E-2,6.8720556E-3,1.05810106E-1,1.8280815E-2,-6.8079226E-2,-3.3759475E-2,7.260543E-2,-2.7816255E-2,-1.13244966E-1,-6.344044E-2,6.350856E-2,-1.0163021E-1,-3.4413543E-2,2.9512376E-3,7.413534E-2],"categories":[],"categories_nodes":[],"categories_segments":[],"categories_sizes":[],"default_left":[0,0,0,0,0,0,0,0,0,0,0,0,0,0,0,0,0,0,0,0,0,0,0,0,0,0,0,0,0,0,0,0,0,0,0,0,0,0,0,0,0,0,0],"id":20,"left_children":[1,3,5,7,9,11,13,15,17,19,21,-1,-1,23,25,27,-1,29,31,33,35,-1,-1,37,39,-1,41,-1,-1,-1,-1,-1,-1,-1,-1,-1,-1,-1,-1,-1,-1,-1,-1],"loss_changes":[1.4015101E1,5.614667E0,3.4595966E0,3.8503437E0,4.086896E0,6.720238E-1,2.3276768E0,2.2249641E0,4.300712E0,3.2120261E0,1.4446056E-1,0E0,0E0,1.995676E0,1.5158365E0,1.2360317E0,0E0,2.348058E0,2.015802E0,1.2253659E0,4.140396E-1,0E0,0E0,3.3428915E0,4.3135834E-1,0E0,3.4572762E-1,0E0,0E0,0E0,0E0,0E0,0E0,0E0,0E0,0E0,0E0,0E0,0E0,0E0,0E0,0E0,0E0],"parents":[2147483647,0,0,1,1,2,2,3,3,4,4,5,5,6,6,7,7,8,8,9,9,10,10,13,13,14,14,15,15,17,17,18,18,19,19,20,20,23,23,24,24,26,26],"right_children":[2,4,6,8,10,12,14,16,18,20,22,-1,-1,24,26,28,-1,30,32,34,36,-1,-1,38,40,-1,42,-1,-1,-1,-1,-1,-1,-1,-1,-1,-1,-1,-1,-1,-1,-1,-1],"split_conditions":[1.0898517E0,1.4039283E0,-1.2343783E0,2.8296122E-1,9.9543333E-1,6.2402092E-2,1.9993045E0,1.6899058E-1,6.615041E-1,-2.6843658E-1,6.1379987E-1,7.5082205E-2,-1.0385319E-2,-4.0146467E-1,-9.301139E-1,-3.163206E-1,9.794065E-2,9.4463855E-1,-4.8660874E-1,-1.7891872E-1,-1.1201459E0,7.370611E-2,1.3186087E-2,5.035203E-1,2.1798167E0,-5.5960674E-2,-3.163206E-1,4.178705E-2,-5.3502202E-2,6.8720556E-3,1.05810106E-1,1.8280815E-2,-6.8079226E-2,-3.3759475E-2,7.260543E-2,-2.7816255E-2,-1.13244966E-1,-6.344044E-2,6.350856E-2,-1.0163021E-1,-3.4413543E-2,2.9512376E-3,7.413534E-2],"split_indices":[12,8,3,0,10,0,2,7,1,0,0,0,0,9,0,9,0,0,9,7,3,0,0,0,11,0,9,0,0,0,0,0,0,0,0,0,0,0,0,0,0,0,0],"split_type":[0,0,0,0,0,0,0,0,0,0,0,0,0,0,0,0,0,0,0,0,0,0,0,0,0,0,0,0,0,0,0,0,0,0,0,0,0,0,0,0,0,0,0],"sum_hessian":[7.98858E1,4.7022465E1,3.286334E1,3.5604366E1,1.1418099E1,2.4835725E0,3.0379766E1,1.7212236E1,1.8392128E1,8.665744E0,2.7523549E0,1.3114414E0,1.1721311E0,2.6826122E1,3.553644E0,4.139325E0,1.3072911E1,8.938475E0,9.453654E0,2.49896E0,6.1667843E0,1.6802438E0,1.0721111E0,8.782821E0,1.80433E1,1.2963603E0,2.2572837E0,3.0652692E0,1.074056E0,4.699128E0,4.2393465E0,4.1154385E0,5.338216E0,1.2617387E0,1.2372214E0,1.5254318E0,4.641352E0,6.8573356E0,1.9254849E0,1.5608291E1,2.435011E0,1.1321194E0,1.1251644E0],"tree_param":{"num_deleted":"0","num_feature":"13","num_nodes":"43","size_leaf_vector":"1"}},{"base_weights":[-2.5904713E-2,2.9210067E-1,-4.939736E-1,5.77892E-1,-2.0872545E-1,-8.080867E-3,-8.3069336E-1,2.870536E-1,9.6392447E-1,-7.409961E-1,1.913668E-1,-3.8927054E-1,7.410017E-1,-1.03122175E-1,-1.5055871E-1,6.720372E-1,1.1561469E-3,1.0244421E-1,1.7642386E-2,-1.0579494E-2,-9.252396E-2,-1.7312868E-1,9.532311E-2,-7.3271585E-1,6.016469E-1,8.6133845E-2,1.8267324E-2,6.1597712E-2,-7.075889E-1,8.205574E-2,-1.456848E-2,4.3088447E-2,-5.20948E-2,5.9494793E-2,-4.430223E-2,2.4667563E-2,-9.404892E-2,7.891947E-2,1.1181589E-2,-8.4279105E-2,-2.0987166E-2],"categories":[],"categories_nodes":[],"categories_segments":[],"categories_sizes":[],"default_left":[0,0,0,0,0,0,0,0,0,0,0,0,0,0,0,0,0,0,0,0,0,0,0,0,0,0,0,0,0,0,0,0,0,0,0,0,0,0,0,0,0],"id":21,"left_children":[1,3,5,7,9,11,13,15,17,19,21,23,25,-1,27,29,31,-1,-1,-1,-1,33,-1,35,37,-1,-1,-1,39,-1,-1,-1,-1,-1,-1,-1,-1,-1,-1,-1,-1],"loss_changes":[1.1647403E1,6.7970457E0,5.1691475E0,3.08741E0,3.9072456E0,4.274378E0,2.3919287E0,2.0368629E0,4.1263485E-1,8.141136E-1,3.188845E0,3.8124275E0,1.8210006E-1,0E0,2.7516372E0,1.0774782E0,2.8327596E0,0E0,0E0,0E0,0E0,1.9658132E0,0E0,1.8208432E0,1.9645202E-1,0E0,0E0,0E0,6.5807104E-2,0E0,0E0,0E0,0E0,0E0,0E0,0E0,0E0,0E0,0E0,0E0,0E0],"parents":[2147483647,0,0,1,1,2,2,3,3,4,4,5,5,6,6,7,7,8,8,9,9,10,10,11,11,12,12,14,14,15,15,16,16,21,21,23,23,24,24,28,28],"right_children":[2,4,6,8,10,12,14,16,18,20,22,24,26,-1,28,30,32,-1,-1,-1,-1,34,-1,36,38,-1,-1,-1,40,-1,-1,-1,-1,-1,-1,-1,-1,-1,-1,-1,-1],"split_conditions":[2.3862459E-1,1.0898517E0,-4.0146467E-1,5.168999E-1,-2.6843658E-1,1.0276179E0,9.9543333E-1,8.912549E-1,1.5513697E0,-6.593321E-1,4.7341123E-1,-7.4204093E-1,-7.4204093E-1,-1.03122175E-1,1.2092206E0,1.1311285E0,-1.9392121E-1,1.0244421E-1,1.7642386E-2,-1.0579494E-2,-9.252396E-2,6.2402092E-2,9.532311E-2,-1.2343783E0,1.1651977E0,8.6133845E-2,1.8267324E-2,6.1597712E-2,-4.0723452E-1,8.205574E-2,-1.456848E-2,4.3088447E-2,-5.20948E-2,5.9494793E-2,-4.430223E-2,2.4667563E-2,-9.404892E-2,7.891947E-2,1.1181589E-2,-8.4279105E-2,-2.0987166E-2],"split_indices":[11,12,9,7,0,2,10,6,4,4,7,9,9,0,11,9,4,0,0,0,0,0,0,3,0,0,0,0,4,0,0,0,0,0,0,0,0,0,0,0,0],"split_type":[0,0,0,0,0,0,0,0,0,0,0,0,0,0,0,0,0,0,0,0,0,0,0,0,0,0,0,0,0,0,0,0,0,0,0,0,0,0,0,0,0],"sum_hessian":[7.6280716E1,4.5645306E1,3.0635414E1,2.8963627E1,1.6681679E1,1.2959139E1,1.7676275E1,1.7512922E1,1.1450706E1,6.7927485E0,9.88893E0,8.906948E0,4.05219E0,1.3252697E1,4.423578E0,6.8876004E0,1.0625321E1,1.0354136E1,1.0965697E0,1.8812233E0,4.9115252E0,7.211513E0,2.677417E0,6.8079333E0,2.0990152E0,2.8872013E0,1.1649888E0,1.8171512E0,2.6064267E0,5.8259788E0,1.0616218E0,5.9240923E0,4.7012286E0,1.5619783E0,5.6495347E0,1.1587311E0,5.6492023E0,1.0759107E0,1.0231047E0,1.5044408E0,1.101986E0],"tree_param":{"num_deleted":"0","num_feature":"13","num_nodes":"41","size_leaf_vector":"1"}},{"base_weights":[-2.1260722E-2,2.8220415E-1,-4.524539E-1,3.6657114E-2,7.669317E-1,4.864285E-1,-5.584346E-1,6.229629E-1,-3.763582E-1,9.401912E-1,-4.7505192E-2,8.2782604E-2,-1.0140268E-2,-9.33929E-1,-3.587689E-1,9.36235E-1,-1.294208E-1,1.3039892E-2,-7.808113E-1,9.905859E-2,1.924368E-2,-1.0965337E-1,-2.5142297E-2,9.939843E-2,-6.262027E-1,1.017586E-1,2.0539166E-2,-7.39624E-2,4.0268E-2,2.7033014E-2,-7.713901E-2,-8.9223824E-2,-1.0177652E-2,5.3624164E-2,-3.809948E-2,-9.287306E-2,-1.7924514E-2],"categories":[],"categories_nodes":[],"categories_segments":[],"categories_sizes":[],"default_left":[0,0,0,0,0,0,0,0,0,0,0,0,0,0,0,0,0,0,0,0,0,0,0,0,0,0,0,0,0,0,0,0,0,0,0,0,0],"id":22,"left_children":[1,3,5,7,9,11,13,15,17,19,-1,-1,-1,21,23,25,27,29,31,-1,-1,-1,-1,33,35,-1,-1,-1,-1,-1,-1,-1,-1,-1,-1,-1,-1],"loss_changes":[9.637245E0,5.1220965E0,3.2969022E0,7.4437213E0,3.5666285E0,8.100799E-1,1.7480946E0,3.1101027E0,2.8593051E0,3.0150127E-1,0E0,0E0,0E0,7.2553873E-1,2.4838505E0,3.305273E-1,1.7934877E0,2.2672246E0,5.818405E-1,0E0,0E0,0E0,0E0,1.9140499E0,1.539464E0,0E0,0E0,0E0,0E0,0E0,0E0,0E0,0E0,0E0,0E0,0E0,0E0],"parents":[2147483647,0,0,1,1,2,2,3,3,4,4,5,5,6,6,7,7,8,8,9,9,13,13,14,14,15,15,16,16,17,17,18,18,23,23,24,24],"right_children":[2,4,6,8,10,12,14,16,18,20,-1,-1,-1,22,24,26,28,30,32,-1,-1,-1,-1,34,36,-1,-1,-1,-1,-1,-1,-1,-1,-1,-1,-1,-1],"split_conditions":[1.0898517E0,6.038772E-1,-1.2343783E0,6.615041E-1,7.2407943E-1,2.5596792E-1,-2.6843658E-1,1.4039283E0,-1.9392121E-1,1.0502691E0,-4.7505192E-2,8.2782604E-2,-1.0140268E-2,8.6480916E-1,-3.163206E-1,2.3873303E0,-9.1941394E-2,2.1247925E-1,5.933397E-1,9.905859E-2,1.924368E-2,-1.0965337E-1,-2.5142297E-2,-2.1331333E-1,1.0276179E0,1.017586E-1,2.0539166E-2,-7.39624E-2,4.0268E-2,2.7033014E-2,-7.713901E-2,-8.9223824E-2,-1.0177652E-2,5.3624164E-2,-3.809948E-2,-9.287306E-2,-1.7924514E-2],"split_indices":[12,7,3,1,0,7,0,8,4,3,0,0,0,7,9,5,7,7,3,0,0,0,0,4,2,0,0,0,0,0,0,0,0,0,0,0,0],"split_type":[0,0,0,0,0,0,0,0,0,0,0,0,0,0,0,0,0,0,0,0,0,0,0,0,0,0,0,0,0,0,0,0,0,0,0,0,0],"sum_hessian":[7.167419E1,4.227056E1,2.9403622E1,2.8771496E1,1.3499067E1,2.6183035E0,2.6785318E1,1.1681051E1,1.7090445E1,1.2059704E1,1.4393631E0,1.3980687E0,1.2202349E0,8.021847E0,1.8763472E1,8.074634E0,3.6064172E0,9.200335E0,7.8901095E0,1.0994018E1,1.0656862E0,5.9884834E0,2.0333636E0,7.1472073E0,1.1616263E1,6.912816E0,1.1618177E0,1.4982476E0,2.1081693E0,7.4214916E0,1.7788426E0,6.508166E0,1.3819437E0,3.682389E0,3.4648182E0,6.2845836E0,5.3316803E0],"tree_param":{"num_deleted":"0","num_feature":"13","num_nodes":"37","size_leaf_vector":"1"}},{"base_weights":[9.408282E-3,2.633587E-1,-4.0284476E-1,5.524882E-4,6.508201E-1,-6.683486E-1,4.193203E-2,8.220649E-2,-8.6264245E-2,8.18436E-1,-2.1762628E-2,-9.885343E-2,-1.6114818E-1,8.630862E-2,-3.420643E-1,1.7057627E-1,-5.120386E-1,1.381264E-1,9.5938724E-1,-7.938712E-2,5.7599433E-2,2.8015703E-1,-6.756606E-2,-6.2882584E-1,1.893542E-1,9.279571E-2,-1.3395461E-2,3.51205E-2,-6.757405E-2,6.563629E-2,-4.3308873E-2,3.3954468E-3,1.0490618E-1,7.3877506E-2,-2.8380785E-2,-8.460656E-2,7.783302E-3,7.516527E-2,-4.1634243E-2],"categories":[],"categories_nodes":[],"categories_segments":[],"categories_sizes":[],"default_left":[0,0,0,0,0,0,0,0,0,0,0,0,0,0,0,0,0,0,0,0,0,0,0,0,0,0,0,0,0,0,0,0,0,0,0,0,0,0,0],"id":23,"left_children":[1,3,5,7,9,11,13,-1,15,17,19,-1,21,-1,23,25,27,29,31,-1,-1,33,-1,35,37,-1,-1,-1,-1,-1,-1,-1,-1,-1,-1,-1,-1,-1,-1],"loss_changes":[7.853238E0,4.724047E0,3.405779E0,2.1139793E0,2.1316319E0,2.7590523E0,3.9633152E0,0E0,3.01952E0,1.3092508E0,2.6332526E0,0E0,2.0395813E0,0E0,1.4361006E0,4.1547327E0,1.6983166E0,1.3939732E0,9.8403835E-1,0E0,0E0,1.527068E0,0E0,9.6311736E-1,1.6063547E0,0E0,0E0,0E0,0E0,0E0,0E0,0E0,0E0,0E0,0E0,0E0,0E0,0E0,0E0],"parents":[2147483647,0,0,1,1,2,2,3,3,4,4,5,5,6,6,8,8,9,9,10,10,12,12,14,14,15,15,16,16,17,17,18,18,21,21,23,23,24,24],"right_children":[2,4,6,8,10,12,14,-1,16,18,20,-1,22,-1,24,26,28,30,32,-1,-1,34,-1,36,38,-1,-1,-1,-1,-1,-1,-1,-1,-1,-1,-1,-1,-1,-1],"split_conditions":[2.3862459E-1,4.7341123E-1,1.0276179E0,-1.4628431E0,5.235872E-1,8.912549E-1,-6.568969E-1,8.220649E-2,1.4039283E0,-1.4815117E0,5.5931233E-2,-9.885343E-2,1.4039283E0,8.630862E-2,9.9543333E-1,6.615041E-1,-1.1201459E0,1.0898517E0,-6.241209E-1,-7.938712E-2,5.7599433E-2,-4.8452735E-2,-6.756606E-2,1.2092206E0,1.2092206E0,9.279571E-2,-1.3395461E-2,3.51205E-2,-6.757405E-2,6.563629E-2,-4.3308873E-2,3.3954468E-3,1.0490618E-1,7.3877506E-2,-2.8380785E-2,-8.460656E-2,7.783302E-3,7.516527E-2,-4.1634243E-2],"split_indices":[11,7,2,3,4,6,9,0,8,0,2,0,8,0,10,1,3,12,10,0,0,7,0,11,11,0,0,0,0,0,0,0,0,0,0,0,0,0,0],"split_type":[0,0,0,0,0,0,0,0,0,0,0,0,0,0,0,0,0,0,0,0,0,0,0,0,0,0,0,0,0,0,0,0,0,0,0,0,0,0,0],"sum_hessian":[7.299952E1,4.539629E1,2.7603228E1,2.7646036E1,1.7750254E1,1.6970339E1,1.0632889E1,1.8329154E0,2.5813122E1,1.4035562E1,3.714692E0,9.821326E0,7.149012E0,2.9904153E0,7.6424737E0,1.6474535E1,9.338586E0,2.7487092E0,1.1286852E1,1.4777864E0,2.2369056E0,4.09347E0,3.0555418E0,4.8448315E0,2.7976422E0,4.137424E0,1.2337111E1,1.3060485E0,8.032537E0,1.3630311E0,1.385678E0,1.1188692E0,1.0167983E1,2.0866406E0,2.0068295E0,3.5547583E0,1.2900732E0,1.3258327E0,1.4718094E0],"tree_param":{"num_deleted":"0","num_feature":"13","num_nodes":"39","size_leaf_vector":"1"}},{"base_weights":[-1.5371696E-2,-2.8133574E-1,3.0826047E-1,1.3105744E-1,-5.0102E-1,7.183313E-1,1.2750718E-1,4.6824545E-1,-3.6486128E-1,-4.6058174E-2,-6.368129E-1,9.78471E-2,7.625328E-2,3.8998288E-1,-3.0879605E-1,9.696096E-2,-1.9787596E-1,-8.1648074E-2,3.047322E-1,4.6455437E-1,-7.259568E-2,-7.5291675E-1,2.6765238E-2,-6.2340856E-2,7.34364E-2,8.1502926E-1,-1.48653E-1,-7.3938745E-1,3.9213705E-1,3.849651E-2,-8.1247516E-2,7.5122505E-2,-2.5791649E-2,7.737644E-2,-3.055872E-2,5.9119946E-5,-8.839608E-2,5.743263E-2,-5.60583E-2,3.021728E-3,1.0128671E-1,-9.160023E-2,3.737562E-2,-1.9606303E-3,-1.0173643E-1,7.896709E-2,-5.6258133E-3],"categories":[],"categories_nodes":[],"categories_segments":[],"categories_sizes":[],"default_left":[0,0,0,0,0,0,0,0,0,0,0,0,0,0,0,0,0,0,0,0,0,0,0,0,0,0,0,0,0,0,0,0,0,0,0,0,0,0,0,0,0,0,0,0,0,0,0],"id":24,"left_children":[1,3,5,7,9,11,13,15,17,19,21,-1,23,25,27,-1,29,-1,31,33,-1,35,37,-1,-1,39,41,43,45,-1,-1,-1,-1,-1,-1,-1,-1,-1,-1,-1,-1,-1,-1,-1,-1,-1,-1],"loss_changes":[6.163505E0,3.6238308E0,2.3043203E0,2.5859783E0,1.5665841E0,1.5411067E0,2.8288958E0,3.209402E0,2.1864932E0,2.7728808E0,1.5468683E0,0E0,2.2414424E0,3.6031868E0,3.1396353E0,0E0,2.0001962E0,0E0,1.0250831E0,1.3358023E0,0E0,1.6692381E0,1.5815498E0,0E0,0E0,1.3132339E0,3.3704972E0,1.219641E0,8.0136424E-1,0E0,0E0,0E0,0E0,0E0,0E0,0E0,0E0,0E0,0E0,0E0,0E0,0E0,0E0,0E0,0E0,0E0,0E0],"parents":[2147483647,0,0,1,1,2,2,3,3,4,4,5,5,6,6,7,7,8,8,9,9,10,10,12,12,13,13,14,14,16,16,18,18,19,19,21,21,22,22,25,25,26,26,27,27,28,28],"right_children":[2,4,6,8,10,12,14,16,18,20,22,-1,24,26,28,-1,30,-1,32,34,-1,36,38,-1,-1,40,42,44,46,-1,-1,-1,-1,-1,-1,-1,-1,-1,-1,-1,-1,-1,-1,-1,-1,-1,-1],"split_conditions":[9.9543333E-1,-3.163206E-1,6.615041E-1,2.3862459E-1,6.615041E-1,1.4156247E0,2.3862459E-1,-9.6960604E-2,3.9324078E-1,1.4039283E0,1.9993045E0,9.78471E-2,8.912549E-1,-1.1635272E-1,1.0276179E0,9.696096E-2,4.791073E-1,-8.1648074E-2,1.2092206E0,1.0898517E0,-7.259568E-2,-1.1201459E0,8.912549E-1,-6.2340856E-2,7.34364E-2,-1.3712322E0,1.6899058E-1,-1.5815702E-1,1.2092206E0,3.849651E-2,-8.1247516E-2,7.5122505E-2,-2.5791649E-2,7.737644E-2,-3.055872E-2,5.9119946E-5,-8.839608E-2,5.743263E-2,-5.60583E-2,3.021728E-3,1.0128671E-1,-9.160023E-2,3.737562E-2,-1.9606303E-3,-1.0173643E-1,7.896709E-2,-5.6258133E-3],"split_indices":[10,9,1,11,1,4,11,4,0,8,2,0,6,4,2,0,3,0,11,12,0,3,6,0,0,0,7,0,11,0,0,0,0,0,0,0,0,0,0,0,0,0,0,0,0,0,0],"split_type":[0,0,0,0,0,0,0,0,0,0,0,0,0,0,0,0,0,0,0,0,0,0,0,0,0,0,0,0,0,0,0,0,0,0,0,0,0,0,0,0,0,0,0,0,0,0,0],"sum_hessian":[6.959906E1,3.8274994E1,3.1324066E1,1.3443037E1,2.4831957E1,8.6732235E0,2.2650843E1,8.0353775E0,5.4076595E0,6.0157876E0,1.8816168E1,5.799591E0,2.873633E0,1.4209009E1,8.4418335E0,4.3247204E0,3.7106571E0,3.0984716E0,2.309188E0,3.6164887E0,2.3992991E0,1.5899635E1,2.9165325E0,1.4184047E0,1.4552283E0,7.6551046E0,6.553904E0,5.195386E0,3.2464478E0,2.0963058E0,1.6143513E0,1.1006237E0,1.2085642E0,2.5770893E0,1.0393993E0,2.5029671E0,1.3396668E1,1.5208637E0,1.395669E0,1.7732915E0,5.881813E0,2.349453E0,4.204451E0,1.7456938E0,3.449692E0,1.3173871E0,1.9290607E0],"tree_param":{"num_deleted":"0","num_feature":"13","num_nodes":"47","size_leaf_vector":"1"}},{"base_weights":[-2.8313197E-2,2.1956985E-1,-4.3471056E-1,-5.793935E-4,6.175221E-1,-7.488535E-1,-1.00066766E-1,8.213811E-2,-9.339752E-2,8.279142E-2,8.0855274E-1,-8.502187E-1,-3.8934357E-3,-2.9268876E-1,7.058775E-2,2.8976947E-1,-2.770425E-1,5.1081544E-1,-5.9543617E-2,5.320684E-3,8.9641774E-1,-2.1752523E-1,-9.627924E-2,6.086145E-2,-4.5910287E-1,9.196967E-2,-4.1471757E-2,-3.6280358E-3,-8.600031E-2,-2.4154831E-3,7.2321646E-2,9.896683E-2,1.118995E-2,3.333286E-2,-6.602393E-2,7.6667727E-3,-6.329359E-2],"categories":[],"categories_nodes":[],"categories_segments":[],"categories_sizes":[],"default_left":[0,0,0,0,0,0,0,0,0,0,0,0,0,0,0,0,0,0,0,0,0,0,0,0,0,0,0,0,0,0,0,0,0,0,0,0,0],"id":25,"left_children":[1,3,5,7,9,11,13,-1,15,17,19,21,-1,23,-1,25,27,29,-1,-1,31,33,-1,-1,35,-1,-1,-1,-1,-1,-1,-1,-1,-1,-1,-1,-1],"loss_changes":[6.8837376E0,3.7254546E0,2.6441774E0,2.2414834E0,1.4801345E0,9.1585207E-1,2.3300443E0,0E0,1.9374914E0,1.7848192E0,6.853218E-1,6.090412E-1,0E0,2.041284E0,0E0,4.3931994E0,2.5447636E0,4.339493E-1,0E0,0E0,6.084366E-1,9.5843714E-1,0E0,0E0,1.0251162E0,0E0,0E0,0E0,0E0,0E0,0E0,0E0,0E0,0E0,0E0,0E0,0E0],"parents":[2147483647,0,0,1,1,2,2,3,3,4,4,5,5,6,6,8,8,9,9,10,10,11,11,13,13,15,15,16,16,17,17,20,20,21,21,24,24],"right_children":[2,4,6,8,10,12,14,-1,16,18,20,22,-1,24,-1,26,28,30,-1,-1,32,34,-1,-1,36,-1,-1,-1,-1,-1,-1,-1,-1,-1,-1,-1,-1],"split_conditions":[2.3862459E-1,5.168999E-1,5.5931233E-2,-1.4628431E0,5.5931233E-2,1.0859587E0,1.3857569E0,8.213811E-2,6.615041E-1,5.235872E-1,-1.0059136E0,-1.2343783E0,-3.8934357E-3,-5.9927523E-1,7.058775E-2,1.4039283E0,4.8480302E-1,-1.150673E0,-5.9543617E-2,5.320684E-3,7.905523E-1,-4.8452735E-2,-9.627924E-2,6.086145E-2,-3.2051933E-1,9.196967E-2,-4.1471757E-2,-3.6280358E-3,-8.600031E-2,-2.4154831E-3,7.2321646E-2,9.896683E-2,1.118995E-2,3.333286E-2,-6.602393E-2,7.6667727E-3,-6.329359E-2],"split_indices":[11,7,2,3,2,4,0,0,1,4,3,3,0,0,0,8,4,0,0,0,9,7,0,0,3,0,0,0,0,0,0,0,0,0,0,0,0],"split_type":[0,0,0,0,0,0,0,0,0,0,0,0,0,0,0,0,0,0,0,0,0,0,0,0,0,0,0,0,0,0,0,0,0,0,0,0,0],"sum_hessian":[6.6384895E1,4.151962E1,2.4865274E1,2.7374468E1,1.4145151E1,1.2187056E1,1.2678218E1,1.9811174E0,2.5393349E1,4.100493E0,1.0044659E1,1.049142E1,1.6956358E0,1.07466E1,1.931618E0,8.040121E0,1.7353228E1,2.6652884E0,1.4352045E0,1.2139854E0,8.830673E0,2.0276716E0,8.463748E0,1.2608068E0,9.485793E0,4.083403E0,3.9567182E0,1.303289E1,4.3203373E0,1.0093458E0,1.6559427E0,7.658821E0,1.171852E0,1.0135837E0,1.0140878E0,2.4606829E0,7.0251102E0],"tree_param":{"num_deleted":"0","num_feature":"13","num_nodes":"37","size_leaf_vector":"1"}},{"base_weights":[1.1753165E-2,2.5975186E-1,-3.7383908E-1,-2.936913E-1,3.9205202E-1,1.8163986E-3,-6.875572E-1,1.649513E-1,-6.799886E-1,5.364911E-1,-6.8804964E-2,-3.6239153E-1,7.0055795E-1,-8.580537E-1,-1.4914057E-1,6.6077374E-2,-2.839461E-2,-1.3579969E-2,-8.933721E-2,6.196832E-1,-1.2624119E-1,6.225712E-2,-4.0969267E-1,-6.8522197E-1,5.4708887E-2,8.203156E-2,1.4905664E-2,-9.253968E-2,-1.3022947E-2,5.255404E-2,-6.0504973E-2,7.697909E-2,-1.5628358E-2,2.7266204E-2,-4.8912767E-2,1.843468E-2,-7.1920894E-2,-8.964674E-2,5.5720094E-3],"categories":[],"categories_nodes":[],"categories_segments":[],"categories_sizes":[],"default_left":[0,0,0,0,0,0,0,0,0,0,0,0,0,0,0,0,0,0,0,0,0,0,0,0,0,0,0,0,0,0,0,0,0,0,0,0,0,0,0],"id":26,"left_children":[1,3,5,7,9,11,13,15,17,19,21,23,25,27,29,-1,-1,-1,-1,31,33,-1,35,37,-1,-1,-1,-1,-1,-1,-1,-1,-1,-1,-1,-1,-1,-1,-1],"loss_changes":[6.2052507E0,3.0046692E0,2.9960303E0,1.5623841E0,2.1855197E0,3.4506679E0,1.1434436E0,1.1996723E0,4.1728663E-1,1.4394493E0,2.2792544E0,2.9928737E0,1.8451643E-1,3.8475704E-1,1.7148781E0,0E0,0E0,0E0,0E0,2.6950598E0,6.52221E-1,0E0,1.3011402E0,1.1494598E0,0E0,0E0,0E0,0E0,0E0,0E0,0E0,0E0,0E0,0E0,0E0,0E0,0E0,0E0,0E0],"parents":[2147483647,0,0,1,1,2,2,3,3,4,4,5,5,6,6,7,7,8,8,9,9,10,10,11,11,12,12,13,13,14,14,19,19,20,20,22,22,23,23],"right_children":[2,4,6,8,10,12,14,16,18,20,22,24,26,28,30,-1,-1,-1,-1,32,34,-1,36,38,-1,-1,-1,-1,-1,-1,-1,-1,-1,-1,-1,-1,-1,-1,-1],"split_conditions":[2.3862459E-1,-5.2682805E-1,-4.0146467E-1,-3.6845028E-1,5.235872E-1,1.0276179E0,9.9543333E-1,1.4039283E0,6.615041E-1,1.2162726E0,-5.489841E-1,-7.4204093E-1,1.0898517E0,1.0277823E0,1.2092206E0,6.6077374E-2,-2.839461E-2,-1.3579969E-2,-8.933721E-2,1.1645015E0,-4.964072E-3,6.225712E-2,3.864339E-1,2.3873303E0,5.4708887E-2,8.203156E-2,1.4905664E-2,-9.253968E-2,-1.3022947E-2,5.255404E-2,-6.0504973E-2,7.697909E-2,-1.5628358E-2,2.7266204E-2,-4.8912767E-2,1.843468E-2,-7.1920894E-2,-8.964674E-2,5.5720094E-3],"split_indices":[11,7,9,4,4,2,10,8,1,9,3,9,12,4,11,0,0,0,0,3,7,0,7,5,0,0,0,0,0,0,0,0,0,0,0,0,0,0,0],"split_type":[0,0,0,0,0,0,0,0,0,0,0,0,0,0,0,0,0,0,0,0,0,0,0,0,0,0,0,0,0,0,0,0,0,0,0,0,0,0,0],"sum_hessian":[6.287511E1,3.8463295E1,2.4411816E1,7.185355E0,3.127794E1,1.15617E1,1.2850115E1,3.5470324E0,3.6383226E0,2.3689272E1,7.588669E0,7.916641E0,3.6450582E0,9.308727E0,3.5413878E0,1.4611499E0,2.0858824E0,1.4857206E0,2.152602E0,2.1104948E1,2.584324E0,2.2331505E0,5.3555183E0,6.0246882E0,1.891953E0,2.5942893E0,1.050769E0,8.2719E0,1.0368277E0,1.366472E0,2.1749158E0,1.7690708E1,3.4142392E0,1.349507E0,1.2348168E0,1.9730818E0,3.3824368E0,4.52476E0,1.4999286E0],"tree_param":{"num_deleted":"0","num_feature":"13","num_nodes":"39","size_leaf_vector":"1"}},{"base_weights":[-6.498846E-2,-3.417203E-1,2.643293E-1,-7.406159E-2,-6.988261E-1,6.8441963E-1,7.757683E-2,1.9927847E-1,-4.8943794E-1,3.8392283E-2,-8.083819E-1,9.557098E-2,-6.587051E-2,3.7834096E-1,-2.8894544E-1,8.600878E-2,-9.8767854E-2,2.9135795E-2,-6.896738E-1,7.0220935E-3,-8.918344E-1,-2.753557E-2,1.4661183E-2,6.861985E-1,-1.466721E-1,-6.839347E-1,3.0029538E-1,-2.6968285E-2,6.567808E-2,-3.4691177E-2,4.0069338E-2,-2.4977699E-2,-8.719024E-2,-2.495736E-2,-9.856188E-2,-3.5231747E-2,9.805004E-2,3.3189647E-2,-7.758311E-2,-3.228441E-2,-9.057968E-2,7.097736E-2,-5.088043E-2],"categories":[],"categories_nodes":[],"categories_segments":[],"categories_sizes":[],"default_left":[0,0,0,0,0,0,0,0,0,0,0,0,0,0,0,0,0,0,0,0,0,0,0,0,0,0,0,0,0,0,0,0,0,0,0,0,0,0,0,0,0,0,0],"id":27,"left_children":[1,3,5,7,9,11,13,15,17,-1,19,-1,21,23,25,-1,27,29,31,-1,33,-1,-1,35,37,39,41,-1,-1,-1,-1,-1,-1,-1,-1,-1,-1,-1,-1,-1,-1,-1,-1],"loss_changes":[5.900583E0,3.3012896E0,2.2750607E0,2.5011332E0,2.0790415E0,1.8958344E0,2.4982715E0,2.7395668E0,9.225724E-1,0E0,1.07903E0,0E0,1.8845317E-1,2.0945625E0,2.6107287E0,0E0,1.492476E0,6.11349E-1,2.880981E-1,0E0,5.2096367E-1,0E0,0E0,2.776035E0,1.878546E0,2.2768426E-1,1.9654684E0,0E0,0E0,0E0,0E0,0E0,0E0,0E0,0E0,0E0,0E0,0E0,0E0,0E0,0E0,0E0,0E0],"parents":[2147483647,0,0,1,1,2,2,3,3,4,4,5,5,6,6,7,7,8,8,10,10,12,12,13,13,14,14,16,16,17,17,18,18,20,20,23,23,24,24,25,25,26,26],"right_children":[2,4,6,8,10,12,14,16,18,-1,20,-1,22,24,26,-1,28,30,32,-1,34,-1,-1,36,38,40,42,-1,-1,-1,-1,-1,-1,-1,-1,-1,-1,-1,-1,-1,-1,-1,-1],"split_conditions":[9.9543333E-1,1.4039283E0,6.615041E-1,2.3862459E-1,-1.4628431E0,1.4156247E0,-2.3270544E-1,6.615041E-1,-4.0146467E-1,3.8392283E-2,-1.8749765E0,9.557098E-2,2.2177799E-2,2.3862459E-1,4.2992255E-1,8.600878E-2,8.6480916E-1,1.0276179E0,2.2177799E-2,7.0220935E-3,-1.1201459E0,-2.753557E-2,1.4661183E-2,-1.3712322E0,3.9324078E-1,1.0276179E0,1.0898517E0,-2.6968285E-2,6.567808E-2,-3.4691177E-2,4.0069338E-2,-2.4977699E-2,-8.719024E-2,-2.495736E-2,-9.856188E-2,-3.5231747E-2,9.805004E-2,3.3189647E-2,-7.758311E-2,-3.228441E-2,-9.057968E-2,7.097736E-2,-5.088043E-2],"split_indices":[10,8,1,11,3,4,4,1,9,0,7,0,3,11,7,0,7,2,3,0,3,0,0,0,0,2,12,0,0,0,0,0,0,0,0,0,0,0,0,0,0,0,0],"split_type":[0,0,0,0,0,0,0,0,0,0,0,0,0,0,0,0,0,0,0,0,0,0,0,0,0,0,0,0,0,0,0,0,0,0,0,0,0,0,0,0,0,0,0],"sum_hessian":[6.2755974E1,3.408014E1,2.8675837E1,2.016981E1,1.391033E1,8.004737E0,2.06711E1,1.2478517E1,7.691292E0,1.0480467E0,1.2862283E1,5.677924E0,2.326813E0,1.1336361E1,9.334739E0,3.292607E0,9.18591E0,2.3805647E0,5.3107276E0,1.1294787E0,1.1732804E1,1.0226694E0,1.3041434E0,6.9525237E0,4.383837E0,5.4923286E0,3.84241E0,8.015714E0,1.170196E0,1.2161001E0,1.1644646E0,2.2499838E0,3.0607436E0,1.9614453E0,9.771359E0,1.4916712E0,5.4608526E0,2.7582533E0,1.6255839E0,3.0246806E0,2.4676483E0,2.6327562E0,1.2096539E0],"tree_param":{"num_deleted":"0","num_feature":"13","num_nodes":"43","size_leaf_vector":"1"}},{"base_weights":[-2.0955944E-2,-2.661429E-1,2.8727344E-1,1.6265611E-1,-4.880732E-1,3.704261E-1,-4.2251296E-2,4.677649E-1,-2.612523E-1,-7.378414E-1,-9.559148E-2,5.946528E-1,8.993769E-3,6.9629335E-1,-4.351322E-2,-5.839815E-1,4.6159673E-2,-2.2136192E-3,-8.114719E-1,8.40765E-2,-4.0264928E-1,1.3520348E-1,8.842722E-2,-3.992823E-1,4.4582093E-1,5.1237904E-3,9.338691E-2,-5.4080733E-3,-8.8192485E-2,-9.634726E-2,-2.1026323E-2,-6.8570673E-3,-7.168378E-2,-7.1333334E-2,3.916074E-2,-6.2470265E-2,1.6019505E-2,-8.421605E-3,7.0336886E-2],"categories":[],"categories_nodes":[],"categories_segments":[],"categories_sizes":[],"default_left":[0,0,0,0,0,0,0,0,0,0,0,0,0,0,0,0,0,0,0,0,0,0,0,0,0,0,0,0,0,0,0,0,0,0,0,0,0,0,0],"id":28,"left_children":[1,3,5,7,9,11,-1,13,15,17,19,21,23,25,-1,27,-1,-1,29,-1,31,33,-1,35,37,-1,-1,-1,-1,-1,-1,-1,-1,-1,-1,-1,-1,-1,-1],"loss_changes":[4.6724687E0,3.3520987E0,1.7751203E0,1.7361948E0,2.1754766E0,2.0273204E0,0E0,1.8741475E0,1.6376119E0,7.120323E-1,3.2306654E0,1.9380794E0,2.0717025E0,9.4231486E-1,0E0,6.6208565E-1,0E0,0E0,9.426689E-1,0E0,8.169184E-1,1.836967E0,0E0,8.587898E-1,8.2398343E-1,0E0,0E0,0E0,0E0,0E0,0E0,0E0,0E0,0E0,0E0,0E0,0E0,0E0,0E0],"parents":[2147483647,0,0,1,1,2,2,3,3,4,4,5,5,7,7,8,8,9,9,10,10,11,11,12,12,13,13,15,15,18,18,20,20,21,21,23,23,24,24],"right_children":[2,4,6,8,10,12,-1,14,16,18,20,22,24,26,-1,28,-1,-1,30,-1,32,34,-1,36,38,-1,-1,-1,-1,-1,-1,-1,-1,-1,-1,-1,-1,-1,-1],"split_conditions":[9.9543333E-1,-3.163206E-1,1.5513697E0,2.3862459E-1,1.0276179E0,2.3862459E-1,-4.2251296E-2,3.8784242E-1,2.1331333E-1,-1.2343783E0,-6.241209E-1,-7.095548E-1,8.912549E-1,-2.2240739E-1,-4.351322E-2,3.852459E-2,4.6159673E-2,-2.2136192E-3,9.308218E-1,8.40765E-2,2.2177799E-2,-1.2343783E0,8.842722E-2,1.4039283E0,5.5931233E-2,5.1237904E-3,9.338691E-2,-5.4080733E-3,-8.8192485E-2,-9.634726E-2,-2.1026323E-2,-6.8570673E-3,-7.168378E-2,-7.1333334E-2,3.916074E-2,-6.2470265E-2,1.6019505E-2,-8.421605E-3,7.0336886E-2],"split_indices":[10,9,4,11,2,11,0,4,4,3,10,0,6,7,0,7,0,0,4,0,3,3,0,8,2,0,0,0,0,0,0,0,0,0,0,0,0,0,0],"split_type":[0,0,0,0,0,0,0,0,0,0,0,0,0,0,0,0,0,0,0,0,0,0,0,0,0,0,0,0,0,0,0,0,0,0,0,0,0,0,0],"sum_hessian":[5.9814884E1,3.3390396E1,2.6424488E1,1.1478837E1,2.191156E1,2.4081425E1,2.3430634E0,6.6145473E0,4.8642893E0,1.2852515E1,9.059045E0,1.4463338E1,9.618086E0,5.4611278E0,1.1534195E0,3.495687E0,1.3686023E0,1.3202279E0,1.1532288E1,1.8078794E0,7.2511654E0,6.15923E0,8.304108E0,5.0159388E0,4.602147E0,1.7971776E0,3.6639504E0,1.6833369E0,1.81235E0,8.724065E0,2.8082225E0,4.104777E0,3.1463883E0,1.0157299E0,5.1435003E0,3.4922752E0,1.5236633E0,1.725027E0,2.87712E0],"tree_param":{"num_deleted":"0","num_feature":"13","num_nodes":"39","size_leaf_vector":"1"}},{"base_weights":[4.0905483E-2,-2.230159E-1,3.462384E-1,1.0166627E-2,-5.6258756E-1,5.8761794E-2,5.4541576E-1,4.8012656E-1,-1.7483288E-1,3.201171E-2,-6.843364E-1,3.9637846E-1,-5.0710046E-1,9.300234E-2,3.3552423E-1,7.998674E-2,-3.4676988E-2,2.1256731E-1,-4.330886E-1,-2.5081335E-4,-7.6412934E-1,-5.8211017E-2,6.0902095E-1,-8.149406E-2,1.5370247E-2,8.038093E-2,-5.5305514E-2,-4.3895032E-2,3.6250766E-2,6.300147E-2,-3.9046835E-2,-6.548866E-2,4.334899E-2,-1.8088149E-2,-8.443152E-2,8.248071E-2,6.110356E-4,2.1527423E-2,-4.839055E-2],"categories":[],"categories_nodes":[],"categories_segments":[],"categories_sizes":[],"default_left":[0,0,0,0,0,0,0,0,0,0,0,0,0,0,0,0,0,0,0,0,0,0,0,0,0,0,0,0,0,0,0,0,0,0,0,0,0,0,0],"id":29,"left_children":[1,3,5,7,9,11,13,15,17,-1,19,21,23,-1,25,-1,27,29,31,-1,33,-1,35,-1,-1,-1,37,-1,-1,-1,-1,-1,-1,-1,-1,-1,-1,-1,-1],"loss_changes":[4.832362E0,2.5600495E0,1.5568681E0,1.8321569E0,1.6323996E0,2.5848837E0,1.0014939E0,1.0065627E0,1.6089118E0,0E0,6.441884E-1,2.0974054E0,1.1630384E0,0E0,2.2573824E0,0E0,6.788542E-1,1.9414632E0,2.0956326E0,0E0,3.44347E-1,0E0,9.5377326E-1,0E0,0E0,0E0,9.76998E-1,0E0,0E0,0E0,0E0,0E0,0E0,0E0,0E0,0E0,0E0,0E0,0E0],"parents":[2147483647,0,0,1,1,2,2,3,3,4,4,5,5,6,6,7,7,8,8,10,10,11,11,12,12,14,14,16,16,17,17,18,18,20,20,22,22,26,26],"right_children":[2,4,6,8,10,12,14,16,18,-1,20,22,24,-1,26,-1,28,30,32,-1,34,-1,36,-1,-1,-1,38,-1,-1,-1,-1,-1,-1,-1,-1,-1,-1,-1,-1],"split_conditions":[9.9543333E-1,1.4039283E0,8.912549E-1,6.615041E-1,-1.4628431E0,5.235872E-1,6.615041E-1,2.3862459E-1,-3.163206E-1,3.201171E-2,-1.7445105E0,-9.308218E-1,1.0276179E0,9.300234E-2,-4.654109E-1,7.998674E-2,8.912549E-1,2.9945657E-1,1.9993045E0,-2.5081335E-4,-1.1201459E0,-5.8211017E-2,1.0898517E0,-8.149406E-2,1.5370247E-2,8.038093E-2,2.8296122E-1,-4.3895032E-2,3.6250766E-2,6.300147E-2,-3.9046835E-2,-6.548866E-2,4.334899E-2,-1.8088149E-2,-8.443152E-2,8.248071E-2,6.110356E-4,2.1527423E-2,-4.839055E-2],"split_indices":[10,8,6,1,3,4,1,11,9,0,7,4,2,0,4,0,6,7,2,0,3,0,12,0,0,0,0,0,0,0,0,0,0,0,0,0,0,0,0],"split_type":[0,0,0,0,0,0,0,0,0,0,0,0,0,0,0,0,0,0,0,0,0,0,0,0,0,0,0,0,0,0,0,0,0,0,0,0,0,0,0],"sum_hessian":[5.8008636E1,3.1258902E1,2.6749737E1,1.9107746E1,1.21511545E1,1.1478137E1,1.52716E1,4.946561E0,1.4161186E1,1.2753412E0,1.08758135E1,7.3765182E0,4.1016192E0,4.1804047E0,1.1091195E1,2.709794E0,2.2367668E0,5.7350917E0,8.426094E0,1.2474885E0,9.6283245E0,1.0066849E0,6.369833E0,2.6389744E0,1.4626447E0,4.564919E0,6.5262756E0,1.0563794E0,1.1803874E0,3.3626094E0,2.3724823E0,6.9034605E0,1.5226339E0,1.5572371E0,8.071088E0,4.419883E0,1.9499506E0,4.305742E0,2.2205338E0],"tree_param":{"num_deleted":"0","num_feature":"13","num_nodes":"39","size_leaf_vector":"1"}},{"base_weights":[1.4420217E-2,2.550756E-1,-3.0722314E-1,7.4283373E-1,1.1733137E-1,3.732615E-2,-6.131889E-1,-1.7047841E-3,8.789903E-2,4.4535795E-1,-1.1896742E-1,5.3789246E-1,-2.913805E-1,-9.366077E-2,-2.0563197E-1,4.4264816E-2,1.0406401E-1,-2.6014245E-1,5.7669397E-2,-3.0357162E-2,8.2864724E-2,3.695378E-2,-5.5434096E-1,-7.245209E-2,7.661253E-2,6.627179E-2,-3.6177527E-2,2.1098694E-2,-5.341663E-2,-9.575023E-2,2.3170494E-2,-3.656715E-2,6.116041E-2],"categories":[],"categories_nodes":[],"categories_segments":[],"categories_sizes":[],"default_left":[0,0,0,0,0,0,0,0,0,0,0,0,0,0,0,0,0,0,0,0,0,0,0,0,0,0,0,0,0,0,0,0,0],"id":30,"left_children":[1,3,5,7,9,11,13,-1,-1,15,17,19,21,-1,23,25,-1,27,-1,-1,-1,-1,29,-1,31,-1,-1,-1,-1,-1,-1,-1,-1],"loss_changes":[4.580862E0,2.1850195E0,2.6951454E0,7.6611423E-1,2.1891735E0,2.2735615E0,1.5846753E0,0E0,0E0,2.759575E0,1.800804E0,1.5851595E0,1.6672199E0,0E0,1.1168599E0,2.2649746E0,0E0,2.0055993E0,0E0,0E0,0E0,0E0,2.2561765E0,0E0,1.5482874E0,0E0,0E0,0E0,0E0,0E0,0E0,0E0,0E0],"parents":[2147483647,0,0,1,1,2,2,3,3,4,4,5,5,6,6,9,9,10,10,11,11,12,12,14,14,15,15,17,17,22,22,24,24],"right_children":[2,4,6,8,10,12,14,-1,-1,16,18,20,22,-1,24,26,-1,28,-1,-1,-1,-1,30,-1,32,-1,-1,-1,-1,-1,-1,-1,-1],"split_conditions":[1.0898517E0,-9.301139E-1,-3.163206E-1,-1.7891872E-1,6.615041E-1,-3.4905815E-1,1.0276179E0,-1.7047841E-3,8.789903E-2,1.0549182E0,6.9085455E-1,-1.150673E0,-5.489841E-1,-9.366077E-2,-3.9636204E-1,2.8296122E-1,1.0406401E-1,-3.2966605E-1,5.7669397E-2,-3.0357162E-2,8.2864724E-2,3.695378E-2,5.035203E-1,-7.245209E-2,8.912549E-1,6.627179E-2,-3.6177527E-2,2.1098694E-2,-5.341663E-2,-9.575023E-2,2.3170494E-2,-3.656715E-2,6.116041E-2],"split_indices":[12,0,9,7,1,4,2,0,0,0,7,0,3,0,7,0,0,4,0,0,0,0,0,0,6,0,0,0,0,0,0,0,0],"split_type":[0,0,0,0,0,0,0,0,0,0,0,0,0,0,0,0,0,0,0,0,0,0,0,0,0,0,0,0,0,0,0,0,0],"sum_hessian":[5.7167877E1,3.2819275E1,2.4348604E1,6.2598906E0,2.6559383E1,1.1865182E1,1.2483422E1,1.0841438E0,5.1757464E0,1.0750697E1,1.5808686E1,4.4508605E0,7.4143214E0,6.2363973E0,6.2470255E0,7.064853E0,3.6858442E0,1.3662182E1,2.1465042E0,1.131665E0,3.3191955E0,1.9949543E0,5.419367E0,1.6488043E0,4.598221E0,2.5494907E0,4.5153623E0,5.108748E0,8.553434E0,3.437933E0,1.9814339E0,2.6904688E0,1.9077523E0],"tree_param":{"num_deleted":"0","num_feature":"13","num_nodes":"33","size_leaf_vector":"1"}},{"base_weights":[-4.4040132E-2,1.7906813E-1,-3.6788306E-1,4.3264946E-1,-1.21751726E-1,5.3547956E-2,-4.7873968E-1,6.676619E-2,7.7983624E-1,-5.316797E-1,1.8049628E-1,-6.5986866E-1,-2.307749E-1,3.2471272E-1,-2.652514E-1,9.297733E-2,2.1450318E-1,-7.7092594E-1,-1.4228246E-1,5.706333E-1,-2.67103E-1,6.396459E-3,-7.736129E-1,3.0688673E-2,-3.9302754E-1,-2.4381867E-2,4.8452612E-2,-7.9826824E-2,1.398237E-2,-2.6886806E-2,5.9081793E-2,-7.585469E-3,-9.727965E-2,2.8768862E-2,-6.083096E-2,-1.7100437E-2,9.292846E-2,4.280479E-2,-6.522074E-2,-8.962404E-2,-4.2800095E-2,-5.3098153E-2,3.778771E-3],"categories":[],"categories_nodes":[],"categories_segments":[],"categories_sizes":[],"default_left":[0,0,0,0,0,0,0,0,0,0,0,0,0,0,0,0,0,0,0,0,0,0,0,0,0,0,0,0,0,0,0,0,0,0,0,0,0,0,0,0,0,0,0],"id":31,"left_children":[1,3,5,7,9,-1,11,13,15,17,19,21,23,25,27,-1,29,31,33,35,37,-1,39,-1,41,-1,-1,-1,-1,-1,-1,-1,-1,-1,-1,-1,-1,-1,-1,-1,-1,-1,-1],"loss_changes":[4.1523905E0,2.658523E0,2.5995767E0,2.3304093E0,2.1285849E0,0E0,8.074794E-1,9.6186024E-1,6.083536E-1,5.625551E-1,1.9317513E0,1.0218992E0,1.0416732E0,6.8184364E-1,1.195748E0,0E0,7.586792E-1,5.216131E-1,9.710095E-1,1.6918145E0,1.7318616E0,0E0,5.2232265E-2,0E0,5.2815557E-1,0E0,0E0,0E0,0E0,0E0,0E0,0E0,0E0,0E0,0E0,0E0,0E0,0E0,0E0,0E0,0E0,0E0,0E0],"parents":[2147483647,0,0,1,1,2,2,3,3,4,4,6,6,7,7,8,8,9,9,10,10,11,11,12,12,13,13,14,14,16,16,17,17,18,18,19,19,20,20,22,22,24,24],"right_children":[2,4,6,8,10,-1,12,14,16,18,20,22,24,26,28,-1,30,32,34,36,38,-1,40,-1,42,-1,-1,-1,-1,-1,-1,-1,-1,-1,-1,-1,-1,-1,-1,-1,-1,-1,-1],"split_conditions":[1.0898517E0,3.9324078E-1,-1.2343783E0,3.4294522E-1,8.34359E-1,5.3547956E-2,5.5931233E-2,-5.817636E-2,2.3862459E-1,8.912549E-1,6.615041E-1,-1.6140445E0,-4.654109E-1,-1.3574485E0,-4.918679E-1,9.297733E-2,2.2177799E-2,5.235872E-1,2.3862459E-1,1.0549182E0,-2.1331333E-1,6.396459E-3,5.168999E-1,3.0688673E-2,6.1379987E-1,-2.4381867E-2,4.8452612E-2,-7.9826824E-2,1.398237E-2,-2.6886806E-2,5.9081793E-2,-7.585469E-3,-9.727965E-2,2.8768862E-2,-6.083096E-2,-1.7100437E-2,9.292846E-2,4.280479E-2,-6.522074E-2,-8.962404E-2,-4.2800095E-2,-5.3098153E-2,3.778771E-3],"split_indices":[12,0,3,7,0,0,2,4,11,6,1,7,4,4,3,0,3,4,11,0,4,0,7,0,0,0,0,0,0,0,0,0,0,0,0,0,0,0,0,0,0,0,0],"split_type":[0,0,0,0,0,0,0,0,0,0,0,0,0,0,0,0,0,0,0,0,0,0,0,0,0,0,0,0,0,0,0,0,0,0,0,0,0,0,0,0,0,0,0],"sum_hessian":[5.5559162E1,3.3160576E1,2.2398586E1,1.7755247E1,1.5405329E1,2.0295496E0,2.0369036E1,9.225377E0,8.52987E0,6.2158766E0,9.189451E0,1.0810923E1,9.558113E0,5.2042017E0,4.0211754E0,6.2323E0,2.2975702E0,3.243359E0,2.9725177E0,4.7630234E0,4.4264283E0,1.5275719E0,9.283351E0,2.0090961E0,7.549017E0,1.0265688E0,4.177633E0,1.317232E0,2.7039433E0,1.1307108E0,1.1668594E0,1.0396036E0,2.2037554E0,1.7451065E0,1.2274112E0,1.7231033E0,3.03992E0,1.5382416E0,2.8881865E0,5.676175E0,3.607176E0,5.5419054E0,2.0071115E0],"tree_param":{"num_deleted":"0","num_feature":"13","num_nodes":"43","size_leaf_vector":"1"}},{"base_weights":[8.885303E-4,2.1065715E-1,-3.066561E-1,5.158979E-1,-4.7574103E-2,-6.4209706E-1,-1.9239599E-2,-5.4948296E-2,6.9780517E-1,-2.976034E-1,3.1822735E-1,-3.614207E-1,-8.797141E-2,-2.0534684E-1,8.2008146E-2,3.9448395E-2,-3.363678E-2,-3.3838045E-2,8.950763E-2,1.02548614E-1,-8.753568E-2,9.8576516E-2,-2.961752E-1,-7.9266116E-2,4.8527373E-3,1.0950558E-1,-7.547187E-2,4.5572586E-2,-5.237595E-2,6.649575E-2,-3.444968E-2,3.2358196E-2,-5.8663763E-2,3.589231E-2,-3.8308434E-2,-2.3084298E-2,8.776719E-2],"categories":[],"categories_nodes":[],"categories_segments":[],"categories_sizes":[],"default_left":[0,0,0,0,0,0,0,0,0,0,0,0,0,0,0,0,0,0,0,0,0,0,0,0,0,0,0,0,0,0,0,0,0,0,0,0,0],"id":32,"left_children":[1,3,5,7,9,11,13,15,17,19,21,23,-1,25,-1,-1,-1,27,-1,29,-1,-1,31,-1,33,35,-1,-1,-1,-1,-1,-1,-1,-1,-1,-1,-1],"loss_changes":[3.4428017E0,2.5250893E0,2.074066E0,1.5568047E0,1.7502182E0,3.460021E-1,2.1499386E0,6.9687927E-1,1.641355E0,2.6949265E0,3.504239E0,9.928481E-1,0E0,2.0169818E0,0E0,0E0,0E0,1.0383589E0,0E0,2.1279821E0,0E0,0E0,1.0624334E0,0E0,7.3907393E-1,2.2894852E0,0E0,0E0,0E0,0E0,0E0,0E0,0E0,0E0,0E0,0E0,0E0],"parents":[2147483647,0,0,1,1,2,2,3,3,4,4,5,5,6,6,7,7,8,8,9,9,10,10,11,11,13,13,17,17,19,19,22,22,24,24,25,25],"right_children":[2,4,6,8,10,12,14,16,18,20,22,24,-1,26,-1,-1,-1,28,-1,30,-1,-1,32,-1,34,36,-1,-1,-1,-1,-1,-1,-1,-1,-1,-1,-1],"split_conditions":[1.0898517E0,1.7268164E-1,8.912549E-1,-4.8452735E-2,1.0549182E0,2.3862459E-1,2.1798167E0,-3.163206E-1,-1.0059136E0,2.3862459E-1,6.615041E-1,-3.7871614E-1,-8.797141E-2,2.4255676E-2,8.2008146E-2,3.9448395E-2,-3.363678E-2,-8.1983435E-1,8.950763E-2,5.035203E-1,-8.753568E-2,9.8576516E-2,-2.1331333E-1,-7.9266116E-2,1.1645015E0,3.1027392E-1,-7.547187E-2,4.5572586E-2,-5.237595E-2,6.649575E-2,-3.444968E-2,3.2358196E-2,-5.8663763E-2,3.589231E-2,-3.8308434E-2,-2.3084298E-2,8.776719E-2],"split_indices":[12,0,6,7,0,11,11,9,3,11,1,0,0,9,0,0,0,0,0,0,0,0,4,0,3,4,0,0,0,0,0,0,0,0,0,0,0],"split_type":[0,0,0,0,0,0,0,0,0,0,0,0,0,0,0,0,0,0,0,0,0,0,0,0,0,0,0,0,0,0,0,0,0,0,0,0,0],"sum_hessian":[5.1364502E1,3.0723675E1,2.064083E1,1.3622941E1,1.7100735E1,8.955234E0,1.16855955E1,3.4607215E0,1.0162219E1,1.0268521E1,6.832212E0,5.2614098E0,3.6938238E0,1.0183003E1,1.5025913E0,1.1778722E0,2.2828493E0,2.3340645E0,7.8281546E0,6.552656E0,3.7158654E0,2.9848237E0,3.8473883E0,1.8817564E0,3.3796532E0,6.9821253E0,3.2008789E0,1.20237E0,1.1316944E0,2.6860285E0,3.8666277E0,1.1913631E0,2.6560254E0,1.8060557E0,1.5735976E0,5.323119E0,1.659006E0],"tree_param":{"num_deleted":"0","num_feature":"13","num_nodes":"37","size_leaf_vector":"1"}},{"base_weights":[1.4325439E-2,-2.7985364E-1,2.3754844E-1,-9.672402E-3,-5.1950175E-1,5.5304873E-3,4.6767062E-1,3.4466273E-1,-4.2516765E-1,-3.8279608E-2,-8.135122E-1,5.8997464E-1,-1.4192247E-1,6.281882E-1,-1.9960304E-1,5.706541E-1,-4.2819604E-2,-7.274402E-2,-1.5025401E-1,-2.5596982E-1,4.3099042E-2,-1.5290319E-2,-9.597968E-2,1.4769335E-2,7.466921E-2,4.149302E-2,-6.474314E-1,7.7888674E-1,-4.014182E-2,-5.362018E-2,1.7313175E-2,7.8373365E-2,2.1778777E-2,-3.5878323E-2,1.0798782E-2,6.055042E-3,-6.76943E-2,3.839116E-2,-4.3094303E-2,-2.1072704E-2,-7.4514665E-2,7.037032E-3,8.88358E-2],"categories":[],"categories_nodes":[],"categories_segments":[],"categories_sizes":[],"default_left":[0,0,0,0,0,0,0,0,0,0,0,0,0,0,0,0,0,0,0,0,0,0,0,0,0,0,0,0,0,0,0,0,0,0,0,0,0,0,0,0,0,0,0],"id":33,"left_children":[1,3,5,7,9,11,13,15,17,19,21,23,25,27,29,31,-1,-1,33,35,-1,-1,-1,-1,-1,37,39,41,-1,-1,-1,-1,-1,-1,-1,-1,-1,-1,-1,-1,-1,-1,-1],"loss_changes":[3.5687442E0,1.5145376E0,1.6453484E0,1.9206797E0,1.7258322E0,1.4954076E0,1.7838256E0,1.476794E0,3.8881958E-1,6.986356E-1,5.933986E-1,1.3190758E-1,1.3144239E0,2.2866545E0,5.647356E-1,2.7205706E-1,0E0,0E0,2.756639E-1,6.487842E-1,0E0,0E0,0E0,0E0,0E0,1.9658628E0,3.3147335E-3,8.246455E-1,0E0,0E0,0E0,0E0,0E0,0E0,0E0,0E0,0E0,0E0,0E0,0E0,0E0,0E0,0E0],"parents":[2147483647,0,0,1,1,2,2,3,3,4,4,5,5,6,6,7,7,8,8,9,9,10,10,11,11,12,12,13,13,14,14,15,15,18,18,19,19,25,25,26,26,27,27],"right_children":[2,4,6,8,10,12,14,16,18,20,22,24,26,28,30,32,-1,-1,34,36,-1,-1,-1,-1,-1,38,40,42,-1,-1,-1,-1,-1,-1,-1,-1,-1,-1,-1,-1,-1,-1,-1],"split_conditions":[5.5931233E-2,1.4039283E0,9.9543333E-1,1.0898517E0,-3.163206E-1,-6.241209E-1,1.2092206E0,1.124743E0,8.912549E-1,1.0549182E0,-1.1201459E0,-3.2051933E-1,7.905523E-1,1.6214311E0,1.9352636E-1,6.615041E-1,-4.2819604E-2,-7.274402E-2,-4.2662665E-1,3.9324078E-1,4.3099042E-2,-1.5290319E-2,-9.597968E-2,1.4769335E-2,7.466921E-2,0E0,1.2162726E0,-1.2343783E0,-4.014182E-2,-5.362018E-2,1.7313175E-2,7.8373365E-2,2.1778777E-2,-3.5878323E-2,1.0798782E-2,6.055042E-3,-6.76943E-2,3.839116E-2,-4.3094303E-2,-2.1072704E-2,-7.4514665E-2,7.037032E-3,8.88358E-2],"split_indices":[2,8,10,12,9,10,11,4,6,0,3,3,9,3,3,1,0,0,4,0,0,0,0,0,0,4,9,3,0,0,0,0,0,0,0,0,0,0,0,0,0,0,0],"split_type":[0,0,0,0,0,0,0,0,0,0,0,0,0,0,0,0,0,0,0,0,0,0,0,0,0,0,0,0,0,0,0,0,0,0,0,0,0,0,0,0,0,0,0],"sum_hessian":[5.2333275E1,2.2468716E1,2.986456E1,1.1050571E1,1.1418144E1,1.538094E1,1.448362E1,6.0562596E0,4.9943123E0,4.759015E0,6.6591287E0,2.4941258E0,1.2886814E1,1.1722306E1,2.7613127E0,4.888459E0,1.1678004E0,1.5947679E0,3.3995442E0,3.5614336E0,1.1975813E0,1.5780467E0,5.0810823E0,1.1607438E0,1.3333821E0,1.0129436E1,2.7573786E0,1.043805E1,1.2842567E0,1.2205404E0,1.5407723E0,2.286624E0,2.6018355E0,1.6654058E0,1.7341385E0,2.521637E0,1.0397967E0,5.981478E0,4.147958E0,1.081323E0,1.6760557E0,1.6167822E0,8.821268E0],"tree_param":{"num_deleted":"0","num_feature":"13","num_nodes":"43","size_leaf_vector":"1"}},{"base_weights":[2.5402332E-2,2.4230985E-1,-3.1816733E-1,4.4952688E-1,-8.2747E-2,-5.603196E-1,5.7297073E-2,6.917732E-1,5.267671E-2,-4.88065E-1,2.6106372E-1,-8.6000465E-2,-1.8931685E-1,7.352779E-2,-2.4920236E-1,8.5052747E-1,-1.3745949E-2,-4.9906734E-2,2.6370272E-1,7.16537E-3,-7.1291E-1,-2.086186E-1,6.6463065E-1,1.8312983E-1,-5.60892E-1,-6.0108876E-1,3.1940016E-1,2.0029407E-2,9.07428E-2,-1.4133898E-2,6.352252E-2,-8.041528E-2,